{"learner": {"attributes": {}, "feature_names": [], "feature_types": [], "gradient_booster": {"model": {"gbtree_model_param": {"num_parallel_tree": "1", "num_trees": "30"}, "iteration_indptr": [0, 1, 2, 3, 4, 5, 6, 7, 8, 9, 10, 11, 12, 13, 14, 15, 16, 17, 18, 19, 20, 21, 22, 23, 24, 25, 26, 27, 28, 29, 30], "tree_info": [0, 0, 0, 0, 0, 0, 0, 0, 0, 0, 0, 0, 0, 0, 0, 0, 0, 0, 0, 0, 0, 0, 0, 0, 0, 0, 0, 0, 0, 0], "trees": [{"base_weights": [0.005004896, 0.3254439, -1.5945982, -0.36300355, 0.6062837, 0.0057588485, -1.7767563, -0.66997546, 0.036548987, -0.10540559, 0.90823096, -0.007877887, -1.9238653, -0.095176145, -1.417399, -0.47721097, 0.95498997, 1.0851691, -1.068566, -0.067740485, -0.014845282, -0.5838035, 0.75861907, 0.00028115037, -1.6402079, 0.03508266, -0.76635206, 0.041526638, 0.00028115037, 1.3016751, 0.4188083, 0.00028115037, -0.05181641, -1.3928308, 0.12031681, -0.007877887, 0.040578026, -0.7015052, -0.06635246, -0.054499727, -0.30448058, 1.4132845, 0.30229563, -0.63853294, 1.032743, -0.0543464, -0.014845282, -0.024911776, 0.029712448, -0.048788093, 0.015407582, -0.73586535, 0.03508266, 0.00028115037, 1.4830691, 0.03679561, -0.029971715, 0.019395584, -0.045965075, 0.04587261, -0.0021597974, -0.048418347, 0.0049733846, 0.014010107, 0.051879436], "categories": [], "categories_nodes": [], "categories_segments": [], "categories_sizes": [], "default_left": [0, 0, 0, 0, 0, 0, 0, 0, 0, 0, 0, 0, 0, 0, 0, 0, 0, 0, 0, 0, 0, 0, 0, 0, 0, 0, 0, 0, 0, 0, 0, 0, 0, 0, 0, 0, 0, 0, 0, 0, 0, 0, 0, 0, 0, 0, 0, 0, 0, 0, 0, 0, 0, 0, 0, 0, 0, 0, 0, 0, 0, 0, 0, 0, 0], "id": 0, "left_children": [1, 3, 5, 7, 9, -1, 11, 13, -1, 15, 17, -1, 19, 21, 23, 25, 27, 29, 31, -1, -1, 33, 35, -1, 37, -1, 39, -1, -1, 41, 43, -1, -1, 45, 47, -1, -1, 49, -1, -1, 51, 53, 55, 57, 59, -1, -1, -1, -1, -1, -1, 61, -1, -1, 63, -1, -1, -1, -1, -1, -1, -1, -1, -1, -1], "loss_changes": [50.38835, 16.052044, 5.5889244, 11.644176, 12.674341, 0.0, 2.9359283, 8.775312, 0.0, 7.6835313, 15.570782, 0.0, 1.2604408, 5.7811146, 2.8552647, 7.104929, 1.3912625, 4.982315, 2.048264, 0.0, 0.0, 5.125465, 2.611915, 0.0, 1.1493473, 0.0, 4.539251, 0.0, 0.0, 2.7453308, 7.71552, 0.0, 0.0, 0.20336723, 4.3952117, 0.0, 0.0, 3.9120588, 0.0, 0.0, 6.29193, 2.4691658, 4.9694333, 4.968853, 2.8253126, 0.0, 0.0, 0.0, 0.0, 0.0, 0.0, 5.1265874, 0.0, 0.0, 1.2243996, 0.0, 0.0, 0.0, 0.0, 0.0, 0.0, 0.0, 0.0, 0.0, 0.0], "parents": [2147483647, 0, 0, 1, 1, 2, 2, 3, 3, 4, 4, 6, 6, 7, 7, 9, 9, 10, 10, 12, 12, 13, 13, 14, 14, 15, 15, 16, 16, 17, 17, 18, 18, 21, 21, 22, 22, 24, 24, 26, 26, 29, 29, 30, 30, 33, 33, 34, 34, 37, 37, 40, 40, 41, 41, 42, 42, 43, 43, 44, 44, 51, 51, 54, 54], "right_children": [2, 4, 6, 8, 10, -1, 12, 14, -1, 16, 18, -1, 20, 22, 24, 26, 28, 30, 32, -1, -1, 34, 36, -1, 38, -1, 40, -1, -1, 42, 44, -1, -1, 46, 48, -1, -1, 50, -1, -1, 52, 54, 56, 58, 60, -1, -1, -1, -1, -1, -1, 62, -1, -1, 64, -1, -1, -1, -1, -1, -1, -1, -1, -1, -1], "split_conditions": [0.84341973, -0.57337993, -1.5180967, 0.6909505, -0.5595614, 0.0057588485, -1.3841065, -0.059899513, 0.036548987, 0.085984975, 1.5944006, -0.007877887, 1.2555122, 0.41579723, -1.2869285, -1.1788961, 0.802071, 0.053744473, -0.5187308, -0.067740485, -0.014845282, 0.35428298, -0.85496444, 0.00028115037, -0.29750815, 0.03508266, -0.7957014, 0.041526638, 0.00028115037, 0.85739577, -0.4362196, 0.00028115037, -0.05181641, 0.40831023, -0.36614358, -0.007877887, 0.040578026, 0.86571616, -0.06635246, -0.054499727, 0.46139267, -1.1370856, 0.90367335, -0.63807064, 0.9353692, -0.0543464, -0.014845282, -0.024911776, 0.029712448, -0.048788093, 0.015407582, -0.26745737, 0.03508266, 0.00028115037, -1.3397446, 0.03679561, -0.029971715, 0.019395584, -0.045965075, 0.04587261, -0.0021597974, -0.048418347, 0.0049733846, 0.014010107, 0.051879436], "split_indices": [25, 25, 15, 9, 5, 0, 6, 3, 0, 22, 0, 0, 15, 15, 1, 6, 10, 25, 2, 0, 0, 7, 25, 0, 2, 0, 19, 0, 0, 5, 10, 0, 0, 1, 13, 0, 0, 3, 0, 0, 17, 13, 2, 6, 19, 0, 0, 0, 0, 0, 0, 24, 0, 0, 11, 0, 0, 0, 0, 0, 0, 0, 0, 0, 0], "split_type": [0, 0, 0, 0, 0, 0, 0, 0, 0, 0, 0, 0, 0, 0, 0, 0, 0, 0, 0, 0, 0, 0, 0, 0, 0, 0, 0, 0, 0, 0, 0, 0, 0, 0, 0, 0, 0, 0, 0, 0, 0, 0, 0, 0, 0, 0, 0, 0, 0, 0, 0, 0, 0, 0, 0, 0, 0, 0, 0, 0, 0, 0, 0, 0, 0], "sum_hessian": [96.291855, 80.88516, 15.406697, 23.350775, 57.534386, 1.4443779, 13.962319, 19.73983, 3.6109447, 17.332535, 40.20185, 1.4443779, 12.517941, 11.795753, 7.9440784, 13.24013, 4.092404, 37.313095, 2.8887558, 11.314293, 1.2036482, 7.7033486, 4.092404, 1.2036482, 6.74043, 1.6851075, 11.555023, 2.8887558, 1.2036482, 27.44318, 9.869915, 1.2036482, 1.6851075, 3.1294854, 4.573863, 1.4443779, 2.648026, 2.648026, 4.092404, 3.1294854, 8.425537, 24.313694, 3.1294854, 3.6109447, 6.2589707, 1.9258372, 1.2036482, 2.1665668, 2.4072964, 1.4443779, 1.2036482, 6.74043, 1.6851075, 1.2036482, 23.110046, 1.9258372, 1.2036482, 1.4443779, 2.1665668, 4.573863, 1.6851075, 3.370215, 3.370215, 1.9258372, 21.184208], "tree_param": {"num_deleted": "0", "num_feature": "28", "num_nodes": "65", "size_leaf_vector": "1"}}, {"base_weights": [-1.0440222e-05, 0.2915707, -0.97399694, -0.68456316, 0.6257977, 0.6074064, -1.1911949, -1.124244, 0.10459361, 1.2361027, -0.03721212, -0.0064839274, 0.03797595, -1.5165231, -0.1250739, -1.3592972, 0.014338498, 0.041015167, -0.3279613, 0.347151, 1.4955653, 0.4821579, -0.7235039, -0.5502709, -0.057320908, -0.032235883, 0.53774405, -1.4794172, -0.0064839274, 0.6074064, -1.0210841, -0.36018845, 1.0975751, 0.0062845265, 1.625075, 0.7589067, -0.8218028, -1.1556592, 0.53774405, 0.014338498, -0.041380312, -0.0050022122, 0.03797595, -0.017128246, -0.05379198, -0.0064839274, 0.03797595, -0.043351624, -0.0064839274, -0.034758866, 0.019249853, 0.045574307, 0.008336032, 1.698498, 0.008336032, 0.042321146, 1.180378, -0.036123846, -0.0064839274, 0.014338498, -1.4861226, 0.03797595, -0.0050022122, 1.7817104, 0.008336032, -0.71284187, 0.8932482, 0.05469372, 0.51691955, -0.0064839274, -0.056064982, 0.014338498, 0.062476054, -0.041380312, 0.008336032, 0.008336032, 0.03797595, 0.0323479, -0.012338169], "categories": [], "categories_nodes": [], "categories_segments": [], "categories_sizes": [], "default_left": [0, 0, 0, 0, 0, 0, 0, 0, 0, 0, 0, 0, 0, 0, 0, 0, 0, 0, 0, 0, 0, 0, 0, 0, 0, 0, 0, 0, 0, 0, 0, 0, 0, 0, 0, 0, 0, 0, 0, 0, 0, 0, 0, 0, 0, 0, 0, 0, 0, 0, 0, 0, 0, 0, 0, 0, 0, 0, 0, 0, 0, 0, 0, 0, 0, 0, 0, 0, 0, 0, 0, 0, 0, 0, 0, 0, 0, 0, 0], "id": 1, "left_children": [1, 3, 5, 7, 9, 11, 13, 15, 17, 19, 21, -1, -1, 23, 25, 27, -1, -1, 29, 31, 33, 35, 37, 39, -1, -1, 41, 43, -1, 45, 47, 49, 51, -1, 53, 55, 57, 59, 61, -1, -1, -1, -1, -1, -1, -1, -1, -1, -1, -1, -1, -1, -1, 63, -1, 65, 67, -1, -1, -1, 69, -1, -1, 71, -1, 73, 75, -1, 77, -1, -1, -1, -1, -1, -1, -1, -1, -1, -1], "loss_changes": [28.949852, 26.02325, 8.790438, 7.2263927, 23.904991, 1.7137674, 7.089609, 5.4230175, 4.4190598, 6.569004, 10.768404, 0.0, 0.0, 2.1918983, 3.8668625, 1.3552685, 0.0, 0.0, 4.9940753, 4.7720675, 3.6691551, 6.8450084, 7.703079, 3.4124641, 0.0, 0.0, 1.8251584, 0.532032, 0.0, 1.7137674, 0.7282839, 3.800804, 0.62887144, 0.0, 1.7192764, 4.4022484, 0.3639698, 5.87685, 1.8251584, 0.0, 0.0, 0.0, 0.0, 0.0, 0.0, 0.0, 0.0, 0.0, 0.0, 0.0, 0.0, 0.0, 0.0, 1.9635239, 0.0, 4.811363, 1.9759359, 0.0, 0.0, 0.0, 1.821558, 0.0, 0.0, 1.5382805, 0.0, 2.3453772, 0.26867604, 0.0, 2.4702048, 0.0, 0.0, 0.0, 0.0, 0.0, 0.0, 0.0, 0.0, 0.0, 0.0], "parents": [2147483647, 0, 0, 1, 1, 2, 2, 3, 3, 4, 4, 5, 5, 6, 6, 7, 7, 8, 8, 9, 9, 10, 10, 13, 13, 14, 14, 15, 15, 18, 18, 19, 19, 20, 20, 21, 21, 22, 22, 23, 23, 26, 26, 27, 27, 29, 29, 30, 30, 31, 31, 32, 32, 34, 34, 35, 35, 36, 36, 37, 37, 38, 38, 53, 53, 55, 55, 56, 56, 60, 60, 63, 63, 65, 65, 66, 66, 68, 68], "right_children": [2, 4, 6, 8, 10, 12, 14, 16, 18, 20, 22, -1, -1, 24, 26, 28, -1, -1, 30, 32, 34, 36, 38, 40, -1, -1, 42, 44, -1, 46, 48, 50, 52, -1, 54, 56, 58, 60, 62, -1, -1, -1, -1, -1, -1, -1, -1, -1, -1, -1, -1, -1, -1, 64, -1, 66, 68, -1, -1, -1, 70, -1, -1, 72, -1, 74, 76, -1, 78, -1, -1, -1, -1, -1, -1, -1, -1, -1, -1], "split_conditions": [0.50387776, -0.6700366, -0.30060956, -0.26181468, -0.21701871, 0.19936173, 0.5824562, 1.1278331, -1.0397838, -0.6877853, 0.19725849, -0.0064839274, 0.03797595, -0.061257277, 0.22363599, 0.96412057, 0.014338498, 0.041015167, -0.018422382, -0.3893789, -1.0091954, 1.0612634, 0.6122309, -0.13554856, -0.057320908, -0.032235883, 0.34281594, -1.2339154, -0.0064839274, -0.5562817, 0.7760154, -0.35719588, -0.77846795, 0.0062845265, 1.5524036, -0.54242647, -0.4286261, -0.58755547, -0.48782712, 0.014338498, -0.041380312, -0.0050022122, 0.03797595, -0.017128246, -0.05379198, -0.0064839274, 0.03797595, -0.043351624, -0.0064839274, -0.034758866, 0.019249853, 0.045574307, 0.008336032, 1.3653426, 0.008336032, 0.041951258, 0.13873032, -0.036123846, -0.0064839274, 0.014338498, -0.5228486, 0.03797595, -0.0050022122, -1.4305624, 0.008336032, 0.20815954, -0.953877, 0.05469372, 0.39209196, -0.0064839274, -0.056064982, 0.014338498, 0.062476054, -0.041380312, 0.008336032, 0.008336032, 0.03797595, 0.0323479, -0.012338169], "split_indices": [25, 26, 27, 22, 27, 14, 22, 14, 14, 3, 19, 0, 0, 27, 24, 0, 0, 0, 22, 26, 5, 27, 9, 2, 0, 0, 7, 4, 0, 2, 4, 24, 3, 0, 0, 0, 5, 9, 10, 0, 0, 0, 0, 0, 0, 0, 0, 0, 0, 0, 0, 0, 0, 6, 0, 9, 12, 0, 0, 0, 0, 0, 0, 19, 0, 4, 0, 0, 20, 0, 0, 0, 0, 0, 0, 0, 0, 0, 0], "split_type": [0, 0, 0, 0, 0, 0, 0, 0, 0, 0, 0, 0, 0, 0, 0, 0, 0, 0, 0, 0, 0, 0, 0, 0, 0, 0, 0, 0, 0, 0, 0, 0, 0, 0, 0, 0, 0, 0, 0, 0, 0, 0, 0, 0, 0, 0, 0, 0, 0, 0, 0, 0, 0, 0, 0, 0, 0, 0, 0, 0, 0, 0, 0, 0, 0, 0, 0, 0, 0, 0, 0, 0, 0, 0, 0, 0, 0, 0, 0], "sum_hessian": [99.93753, 77.451584, 22.485945, 19.487818, 57.963768, 2.4984381, 19.987505, 12.242347, 7.245471, 29.731415, 28.232351, 1.2492191, 1.2492191, 14.990629, 4.9968762, 10.743284, 1.4990629, 1.4990629, 5.746408, 7.245471, 22.485945, 16.23985, 11.992503, 3.2479696, 11.74266, 1.9987506, 2.9981258, 9.494065, 1.2492191, 2.4984381, 3.2479696, 3.9975011, 3.2479696, 2.2485943, 20.237349, 13.74141, 2.4984381, 8.994377, 2.9981258, 1.4990629, 1.7489067, 1.7489067, 1.2492191, 1.7489067, 7.7451587, 1.2492191, 1.2492191, 1.9987506, 1.2492191, 2.2485943, 1.7489067, 1.9987506, 1.2492191, 18.98813, 1.2492191, 5.496564, 8.244846, 1.2492191, 1.2492191, 1.4990629, 7.4953146, 1.2492191, 1.7489067, 17.73891, 1.2492191, 2.9981258, 2.4984381, 3.9975011, 4.247345, 1.2492191, 6.2460957, 1.4990629, 16.23985, 1.7489067, 1.2492191, 1.2492191, 1.2492191, 2.748282, 1.4990629], "tree_param": {"num_deleted": "0", "num_feature": "28", "num_nodes": "79", "size_leaf_vector": "1"}}, {"base_weights": [-0.002551968, 0.30353212, -1.5032046, -0.35736448, 0.5755196, 0.006034312, -1.6760253, -0.65266514, 0.035464454, -0.1134107, 0.8704046, -0.0069827745, -1.8165352, -0.089731574, -1.3819566, -0.4691671, 0.9152147, 1.0440421, -1.0352725, -1.9251168, -0.01298371, -0.5637671, 0.74364954, 0.00062561414, -1.6016121, 0.034330077, -0.749814, 0.04021997, -0.00042281847, 1.2555295, 0.39900443, 0.00045817782, -0.050276283, -0.0137255145, -0.06839398, -1.3430163, 0.11924479, -0.0076029943, 0.039822564, -0.013845969, -0.062119648, -0.05347942, -0.29470566, 1.3668929, 0.27192336, -0.6391888, 1.0074273, -0.013486582, -0.05313709, -0.02433142, 0.029274117, -0.70982444, 0.034193262, 1.4667308, 0.30464515, -0.022514703, 0.034414493, 0.018716464, -0.045253813, 0.044884264, -0.0021942647, -0.04634496, 0.0046888865, 0.050164897, 0.014007933, -0.014947534, 0.030624418], "categories": [], "categories_nodes": [], "categories_segments": [], "categories_sizes": [], "default_left": [0, 0, 0, 0, 0, 0, 0, 0, 0, 0, 0, 0, 0, 0, 0, 0, 0, 0, 0, 0, 0, 0, 0, 0, 0, 0, 0, 0, 0, 0, 0, 0, 0, 0, 0, 0, 0, 0, 0, 0, 0, 0, 0, 0, 0, 0, 0, 0, 0, 0, 0, 0, 0, 0, 0, 0, 0, 0, 0, 0, 0, 0, 0, 0, 0, 0, 0], "id": 2, "left_children": [1, 3, 5, 7, 9, -1, 11, 13, -1, 15, 17, -1, 19, 21, 23, 25, 27, 29, 31, 33, -1, 35, 37, -1, 39, -1, 41, -1, -1, 43, 45, -1, -1, -1, -1, 47, 49, -1, -1, -1, -1, -1, 51, 53, 55, 57, 59, -1, -1, -1, -1, 61, -1, 63, 65, -1, -1, -1, -1, -1, -1, -1, -1, -1, -1, -1, -1], "loss_changes": [45.0252, 14.842249, 5.13702, 10.91719, 11.895544, 0.0, 2.7430573, 8.409769, 0.0, 7.1223683, 14.574274, 0.0, 1.3733597, 5.476203, 2.794796, 6.767689, 1.3777242, 4.6652794, 1.9595833, 1.5481377, 0.0, 4.8056717, 2.4956393, 0.0, 1.6434517, 0.0, 4.4206953, 0.0, 0.0, 2.7013054, 7.476392, 0.0, 0.0, 0.0, 0.0, 0.33490372, 4.2308917, 0.0, 0.0, 0.0, 0.0, 0.0, 5.9000816, 2.1994553, 3.6524615, 4.7376413, 2.7119646, 0.0, 0.0, 0.0, 0.0, 4.6923494, 0.0, 0.26927567, 1.987047, 0.0, 0.0, 0.0, 0.0, 0.0, 0.0, 0.0, 0.0, 0.0, 0.0, 0.0, 0.0], "parents": [2147483647, 0, 0, 1, 1, 2, 2, 3, 3, 4, 4, 6, 6, 7, 7, 9, 9, 10, 10, 12, 12, 13, 13, 14, 14, 15, 15, 16, 16, 17, 17, 18, 18, 19, 19, 21, 21, 22, 22, 24, 24, 26, 26, 29, 29, 30, 30, 35, 35, 36, 36, 42, 42, 43, 43, 44, 44, 45, 45, 46, 46, 51, 51, 53, 53, 54, 54], "right_children": [2, 4, 6, 8, 10, -1, 12, 14, -1, 16, 18, -1, 20, 22, 24, 26, 28, 30, 32, 34, -1, 36, 38, -1, 40, -1, 42, -1, -1, 44, 46, -1, -1, -1, -1, 48, 50, -1, -1, -1, -1, -1, 52, 54, 56, 58, 60, -1, -1, -1, -1, 62, -1, 64, 66, -1, -1, -1, -1, -1, -1, -1, -1, -1, -1, -1, -1], "split_conditions": [0.84341973, -0.57337993, -1.5180967, 0.6909505, -0.5595614, 0.006034312, -1.3841065, -0.059899513, 0.035464454, 0.085984975, 1.5944006, -0.0069827745, 1.3965214, 0.41579723, -1.0198734, -1.1788961, 0.802071, 0.053744473, 0.10570329, -1.229672, -0.01298371, 0.35428298, -0.85496444, 0.00062561414, -0.70398587, 0.034330077, -0.7957014, 0.04021997, -0.00042281847, 1.0209845, -0.4362196, 0.00045817782, -0.050276283, -0.0137255145, -0.06839398, -1.0561135, -0.36614358, -0.0076029943, 0.039822564, -0.013845969, -0.062119648, -0.05347942, 0.46139267, 0.85739577, 0.3582593, -0.63807064, 0.9353692, -0.013486582, -0.05313709, -0.02433142, 0.029274117, -0.26745737, 0.034193262, 1.6874391, 0.23083058, -0.022514703, 0.034414493, 0.018716464, -0.045253813, 0.044884264, -0.0021942647, -0.04634496, 0.0046888865, 0.050164897, 0.014007933, -0.014947534, 0.030624418], "split_indices": [25, 25, 15, 9, 5, 0, 6, 3, 0, 22, 0, 0, 18, 15, 22, 6, 10, 25, 8, 18, 0, 7, 25, 0, 0, 0, 19, 0, 0, 21, 10, 0, 0, 0, 0, 26, 13, 0, 0, 0, 0, 0, 17, 5, 27, 6, 19, 0, 0, 0, 0, 24, 0, 4, 17, 0, 0, 0, 0, 0, 0, 0, 0, 0, 0, 0, 0], "split_type": [0, 0, 0, 0, 0, 0, 0, 0, 0, 0, 0, 0, 0, 0, 0, 0, 0, 0, 0, 0, 0, 0, 0, 0, 0, 0, 0, 0, 0, 0, 0, 0, 0, 0, 0, 0, 0, 0, 0, 0, 0, 0, 0, 0, 0, 0, 0, 0, 0, 0, 0, 0, 0, 0, 0, 0, 0, 0, 0, 0, 0, 0, 0, 0, 0, 0, 0], "sum_hessian": [96.03118, 80.42487, 15.606311, 23.356796, 57.068073, 1.4479296, 14.158381, 19.786572, 3.570225, 17.289824, 39.77825, 1.4557, 12.702682, 11.800732, 7.98584, 13.250831, 4.038992, 36.87087, 2.9073825, 11.480121, 1.2225603, 7.7283096, 4.0724216, 1.2065195, 6.7793202, 1.6685516, 11.582279, 2.8451774, 1.1938146, 27.05421, 9.816658, 1.2053009, 1.7020817, 1.2152206, 10.2649, 3.1584804, 4.5698295, 1.44768, 2.6247416, 1.6940796, 5.085241, 3.1472783, 8.435, 23.952631, 3.1015813, 3.60856, 6.2080975, 1.2179557, 1.9405248, 2.1747997, 2.3950295, 6.7694035, 1.6655976, 21.54673, 2.4059, 1.4309344, 1.6706469, 1.4326515, 2.1759086, 4.524073, 1.6840243, 3.4078426, 3.3615606, 20.364952, 1.1817777, 1.2018315, 1.2040685], "tree_param": {"num_deleted": "0", "num_feature": "28", "num_nodes": "67", "size_leaf_vector": "1"}}, {"base_weights": [-0.44018263, 0.08539109, -0.9680801, -1.0782489, 0.7597282, -0.5093819, -1.5725777, -1.5557511, -0.15796791, -0.04213355, 1.0353402, 0.021270273, -1.1415672, -1.8810059, -0.47610813, -1.8020252, 0.005473588, 0.28815892, -0.045292586, -0.6597445, 0.03240348, 1.3134736, 0.30932552, 1.0008864, -0.4234121, -1.532182, 0.2039373, -0.012959088, -1.9804932, 0.01992262, -0.9678002, -1.9297826, -0.0145008145, -0.43251884, 0.03103661, 0.01506383, -1.0101813, -4.896624e-05, 1.4135344, -0.039047685, 0.89839554, 2.9462142e-06, 0.04256112, -1.0027949, 0.6824724, -0.0027223062, -1.8004396, 0.03019903, -0.0149327265, -0.013429035, -0.0698456, -0.050498344, -0.0019328367, -0.069533296, -0.025487624, 0.0056216284, -0.030099606, -1.3247093, 0.00014675492, 0.013718845, 0.050755832, -0.015840817, 0.04388406, -1.4353751, 0.0060237497, 0.03834956, -0.008163684, -0.014132315, -0.06899101, -0.015141247, -0.051462237, 0.0006777517, -0.05947278], "categories": [], "categories_nodes": [], "categories_segments": [], "categories_sizes": [], "default_left": [0, 0, 0, 0, 0, 0, 0, 0, 0, 0, 0, 0, 0, 0, 0, 0, 0, 0, 0, 0, 0, 0, 0, 0, 0, 0, 0, 0, 0, 0, 0, 0, 0, 0, 0, 0, 0, 0, 0, 0, 0, 0, 0, 0, 0, 0, 0, 0, 0, 0, 0, 0, 0, 0, 0, 0, 0, 0, 0, 0, 0, 0, 0, 0, 0, 0, 0, 0, 0, 0, 0, 0, 0], "id": 3, "left_children": [1, 3, 5, 7, 9, 11, 13, 15, 17, 19, 21, 23, 25, 27, 29, 31, -1, 33, -1, 35, -1, 37, 39, 41, 43, 45, 47, -1, 49, -1, 51, 53, -1, 55, -1, -1, 57, -1, 59, -1, 61, -1, -1, 63, 65, -1, 67, -1, -1, -1, -1, -1, -1, -1, -1, -1, -1, 69, -1, -1, -1, -1, -1, 71, -1, -1, -1, -1, -1, -1, -1, -1, -1], "loss_changes": [27.080305, 39.802032, 12.682365, 7.945484, 7.124384, 9.795474, 6.037258, 5.446451, 4.399117, 6.376926, 4.416353, 7.749458, 7.307913, 1.5550079, 3.6615114, 1.0326958, 0.0, 3.3123016, 0.0, 2.9055767, 0.0, 2.23353, 7.9636016, 1.5319676, 8.5455475, 3.9125137, 2.1803393, 0.0, 1.772358, 0.0, 2.0961127, 0.13645935, 0.0, 1.1827924, 0.0, 0.0, 1.629787, 0.0, 1.0969124, 0.0, 4.206263, 0.0, 0.0, 4.5885496, 2.37077, 0.0, 2.3684769, 0.0, 0.0, 0.0, 0.0, 0.0, 0.0, 0.0, 0.0, 0.0, 0.0, 0.04042864, 0.0, 0.0, 0.0, 0.0, 0.0, 3.237422, 0.0, 0.0, 0.0, 0.0, 0.0, 0.0, 0.0, 0.0, 0.0], "parents": [2147483647, 0, 0, 1, 1, 2, 2, 3, 3, 4, 4, 5, 5, 6, 6, 7, 7, 8, 8, 9, 9, 10, 10, 11, 11, 12, 12, 13, 13, 14, 14, 15, 15, 17, 17, 19, 19, 21, 21, 22, 22, 23, 23, 24, 24, 25, 25, 26, 26, 28, 28, 30, 30, 31, 31, 33, 33, 36, 36, 38, 38, 40, 40, 43, 43, 44, 44, 46, 46, 57, 57, 63, 63], "right_children": [2, 4, 6, 8, 10, 12, 14, 16, 18, 20, 22, 24, 26, 28, 30, 32, -1, 34, -1, 36, -1, 38, 40, 42, 44, 46, 48, -1, 50, -1, 52, 54, -1, 56, -1, -1, 58, -1, 60, -1, 62, -1, -1, 64, 66, -1, 68, -1, -1, -1, -1, -1, -1, -1, -1, -1, -1, 70, -1, -1, -1, -1, -1, 72, -1, -1, -1, -1, -1, -1, -1, -1, -1], "split_conditions": [-0.21701871, -0.6700366, 0.48216018, -0.26181468, -0.6877853, 0.19725849, 0.5824562, 1.1278331, 0.35736164, 0.034204204, -0.14983608, -0.7987876, 0.6122309, -1.374955, 0.74400544, 0.22664449, 0.005473588, -0.800892, -0.045292586, -0.73944044, 0.03240348, -1.1418413, -0.6897832, -0.94148904, 1.1135997, -0.7296791, -0.48782712, -0.012959088, -1.2831025, 0.01992262, 0.43266132, 1.0732236, -0.0145008145, -0.7853443, 0.03103661, 0.01506383, 0.46397346, -4.896624e-05, -0.3924629, -0.039047685, -1.0429245, 2.9462142e-06, 0.04256112, -0.14234611, -0.15332025, -0.0027223062, -0.50179255, 0.03019903, -0.0149327265, -0.013429035, -0.0698456, -0.050498344, -0.0019328367, -0.069533296, -0.025487624, 0.0056216284, -0.030099606, -0.20777315, 0.00014675492, 0.013718845, 0.050755832, -0.015840817, 0.04388406, -0.14050722, 0.0060237497, 0.03834956, -0.008163684, -0.014132315, -0.06899101, -0.015141247, -0.051462237, 0.0006777517, -0.05947278], "split_indices": [27, 26, 25, 22, 3, 19, 22, 14, 14, 9, 25, 11, 9, 2, 26, 5, 0, 27, 0, 17, 0, 9, 5, 3, 11, 0, 10, 0, 15, 0, 24, 19, 0, 24, 0, 0, 6, 0, 23, 0, 0, 0, 0, 23, 13, 0, 22, 0, 0, 0, 0, 0, 0, 0, 0, 0, 0, 6, 0, 0, 0, 0, 0, 27, 0, 0, 0, 0, 0, 0, 0, 0, 0], "split_type": [0, 0, 0, 0, 0, 0, 0, 0, 0, 0, 0, 0, 0, 0, 0, 0, 0, 0, 0, 0, 0, 0, 0, 0, 0, 0, 0, 0, 0, 0, 0, 0, 0, 0, 0, 0, 0, 0, 0, 0, 0, 0, 0, 0, 0, 0, 0, 0, 0, 0, 0, 0, 0, 0, 0, 0, 0, 0, 0, 0, 0, 0, 0, 0, 0, 0, 0, 0, 0, 0, 0, 0, 0], "sum_hessian": [96.306656, 48.679592, 47.627068, 17.640343, 31.03925, 28.126831, 19.500238, 11.159527, 6.480815, 8.156363, 22.882887, 15.816728, 12.310102, 14.6607685, 4.8394685, 9.720039, 1.4394879, 5.2794237, 1.201391, 5.2866325, 2.8697298, 15.959649, 6.9232373, 4.5476537, 11.269074, 9.432889, 2.8772135, 1.2230923, 13.437676, 1.4522982, 3.3871706, 8.512761, 1.2072781, 2.6435351, 2.6358888, 1.1977001, 4.0889325, 1.1982498, 14.761399, 1.6889877, 5.2342496, 1.1991019, 3.3485518, 7.456019, 3.8130553, 1.6758324, 7.7570567, 1.1977218, 1.6794918, 1.2179602, 12.219716, 1.6998099, 1.6873605, 6.8094716, 1.7032894, 1.4422072, 1.2013279, 2.8879735, 1.2009591, 1.9185973, 12.842802, 1.1896099, 4.0446396, 5.3044066, 2.1516123, 2.374276, 1.4387794, 1.6905028, 6.066554, 1.198863, 1.6891104, 1.2073582, 4.0970483], "tree_param": {"num_deleted": "0", "num_feature": "28", "num_nodes": "73", "size_leaf_vector": "1"}}, {"base_weights": [0.006241237, 0.2991694, -1.4125692, -0.33039021, 0.5604654, 0.00589666, -1.5741332, -0.61199325, 0.034658164, -0.09983052, 0.84565246, -0.005941251, -1.7091492, -0.06544885, -1.3191005, -0.44189316, 0.8962976, 1.0171713, -1.0132093, -1.8129748, -0.011857402, -0.523516, 0.7408981, 0.0013354016, -1.534627, 0.034008402, -0.71487826, 0.039564118, -0.0006629075, 0.47499847, 1.2698841, 0.00063147483, -0.04929688, -0.013175274, -0.06433739, -1.2727205, 0.13356598, -0.007134218, 0.03947692, -0.012874554, -0.059693184, -0.051509816, -0.27224788, 1.0823847, -0.52621233, -0.0015610872, 1.3369509, -0.012034863, -0.050971683, -0.023208566, 0.029167283, -0.67336696, 0.033671807, 1.261171, -0.0011015899, -1.0852419, 0.029708536, 1.4418615, 0.006497525, -0.044239018, 0.0048708436, 0.013562999, 0.045149058, -0.00076119904, -0.04827293, 0.012396098, 0.04946066], "categories": [], "categories_nodes": [], "categories_segments": [], "categories_sizes": [], "default_left": [0, 0, 0, 0, 0, 0, 0, 0, 0, 0, 0, 0, 0, 0, 0, 0, 0, 0, 0, 0, 0, 0, 0, 0, 0, 0, 0, 0, 0, 0, 0, 0, 0, 0, 0, 0, 0, 0, 0, 0, 0, 0, 0, 0, 0, 0, 0, 0, 0, 0, 0, 0, 0, 0, 0, 0, 0, 0, 0, 0, 0, 0, 0, 0, 0, 0, 0], "id": 4, "left_children": [1, 3, 5, 7, 9, -1, 11, 13, -1, 15, 17, -1, 19, 21, 23, 25, 27, 29, 31, 33, -1, 35, 37, -1, 39, -1, 41, -1, -1, 43, 45, -1, -1, -1, -1, 47, 49, -1, -1, -1, -1, -1, 51, 53, 55, -1, 57, -1, -1, -1, -1, 59, -1, 61, -1, 63, -1, 65, -1, -1, -1, -1, -1, -1, -1, -1, -1], "loss_changes": [40.69222, 13.532314, 4.5814133, 10.061217, 10.951595, 0.0, 2.5809937, 7.9877915, 0.0, 6.6320634, 13.91394, 0.0, 1.3004799, 5.1290708, 2.7143068, 6.43435, 1.357163, 4.53397, 1.909605, 1.3319969, 0.0, 4.488311, 2.3978097, 0.0, 1.6152897, 0.0, 4.2225456, 0.0, 0.0, 8.789967, 2.2681923, 0.0, 0.0, 0.0, 0.0, 0.4282956, 4.041421, 0.0, 0.0, 0.0, 0.0, 0.0, 5.543319, 1.7847853, 5.5449524, 0.0, 2.5703583, 0.0, 0.0, 0.0, 0.0, 4.373885, 0.0, 0.051350594, 0.0, 1.7383418, 0.0, 0.41973495, 0.0, 0.0, 0.0, 0.0, 0.0, 0.0, 0.0, 0.0, 0.0], "parents": [2147483647, 0, 0, 1, 1, 2, 2, 3, 3, 4, 4, 6, 6, 7, 7, 9, 9, 10, 10, 12, 12, 13, 13, 14, 14, 15, 15, 16, 16, 17, 17, 18, 18, 19, 19, 21, 21, 22, 22, 24, 24, 26, 26, 29, 29, 30, 30, 35, 35, 36, 36, 42, 42, 43, 43, 44, 44, 46, 46, 51, 51, 53, 53, 55, 55, 57, 57], "right_children": [2, 4, 6, 8, 10, -1, 12, 14, -1, 16, 18, -1, 20, 22, 24, 26, 28, 30, 32, 34, -1, 36, 38, -1, 40, -1, 42, -1, -1, 44, 46, -1, -1, -1, -1, 48, 50, -1, -1, -1, -1, -1, 52, 54, 56, -1, 58, -1, -1, -1, -1, 60, -1, 62, -1, 64, -1, 66, -1, -1, -1, -1, -1, -1, -1, -1, -1], "split_conditions": [0.84341973, -0.57337993, -1.5180967, 0.6909505, -0.5595614, 0.00589666, -1.3841065, -0.059899513, 0.034658164, 0.085984975, 1.5944006, -0.005941251, 1.3965214, 0.41579723, -1.0198734, -1.1788961, 0.802071, -0.4362196, -0.5187308, -1.229672, -0.011857402, 0.35428298, -0.85496444, 0.0013354016, -0.70398587, 0.034008402, -0.7957014, 0.039564118, -0.0006629075, -0.08781187, -1.1370856, 0.00063147483, -0.04929688, -0.013175274, -0.06433739, -0.6963973, -0.36614358, -0.007134218, 0.03947692, -0.012874554, -0.059693184, -0.051509816, 0.46139267, 0.6757404, 0.51081496, -0.0015610872, 1.442379, -0.012034863, -0.050971683, -0.023208566, 0.029167283, -0.26745737, 0.033671807, -0.81684583, -0.0011015899, -0.43085107, 0.029708536, -1.244807, 0.006497525, -0.044239018, 0.0048708436, 0.013562999, 0.045149058, -0.00076119904, -0.04827293, 0.012396098, 0.04946066], "split_indices": [25, 25, 15, 9, 5, 0, 6, 3, 0, 22, 0, 0, 18, 15, 22, 6, 10, 10, 2, 18, 0, 7, 25, 0, 0, 0, 19, 0, 0, 25, 13, 0, 0, 0, 0, 24, 13, 0, 0, 0, 0, 0, 17, 3, 4, 0, 19, 0, 0, 0, 0, 24, 0, 0, 0, 27, 0, 22, 0, 0, 0, 0, 0, 0, 0, 0, 0], "split_type": [0, 0, 0, 0, 0, 0, 0, 0, 0, 0, 0, 0, 0, 0, 0, 0, 0, 0, 0, 0, 0, 0, 0, 0, 0, 0, 0, 0, 0, 0, 0, 0, 0, 0, 0, 0, 0, 0, 0, 0, 0, 0, 0, 0, 0, 0, 0, 0, 0, 0, 0, 0, 0, 0, 0, 0, 0, 0, 0, 0, 0, 0, 0, 0, 0, 0, 0], "sum_hessian": [95.89292, 80.136955, 15.755966, 23.427332, 56.70962, 1.4450107, 14.310956, 19.892227, 3.535104, 17.30143, 39.40819, 1.466748, 12.844208, 11.836218, 8.05601, 13.293079, 4.0083504, 36.493687, 2.914506, 11.613738, 1.2304696, 7.771923, 4.0642943, 1.2140478, 6.8419623, 1.6607085, 11.632371, 2.8187115, 1.1896391, 12.517693, 23.975994, 1.2044121, 1.7100939, 1.2202494, 10.393489, 3.1936255, 4.5782976, 1.4528216, 2.611473, 1.7052335, 5.136729, 3.1783414, 8.454029, 7.7407045, 4.7769876, 1.1766496, 22.799343, 1.2296993, 1.9639262, 2.189168, 2.3891296, 6.801518, 1.6525111, 6.558779, 1.1819258, 3.5939605, 1.1830271, 20.640669, 2.1586742, 3.4386258, 3.3628922, 1.17365, 5.385129, 1.1858093, 2.4081511, 1.1510438, 19.489626], "tree_param": {"num_deleted": "0", "num_feature": "28", "num_nodes": "67", "size_leaf_vector": "1"}}, {"base_weights": [-0.422749, -0.0051550376, -1.0306718, -1.0433503, 0.49607888, -1.5812467, -0.54121506, -1.4516895, -0.23376578, 0.78724915, -0.33585054, -0.49036306, -1.7581716, 0.45196524, -0.9305322, -1.6714625, 0.0054116943, 0.03169408, -0.6516175, -0.091435306, 1.1035293, -0.7517629, 0.036491003, 0.010603451, -0.04140332, -1.9085423, -0.011963089, 0.035381377, -0.4848648, -1.19996, 0.2482259, -1.7899183, -0.012773657, 0.3062448, -1.3234088, -0.65239304, 0.030365199, 1.331635, 0.43835002, -0.05198127, -0.07168379, -0.06750535, -0.018884616, 0.016190493, -0.040916324, -1.4842112, -0.18586698, 0.032385822, -0.018842474, -0.06399222, -0.020234251, -0.014325593, 0.03023477, -0.051722966, -0.014790477, -0.99343616, 0.014651764, 1.4344589, 0.0056801713, -0.032933977, 0.978814, 0.027523417, -0.77849966, -0.44059792, -0.06545527, -0.034625366, 0.022181323, -0.046954874, -0.002938797, 0.0141978115, 0.049712673, -0.0015389987, 0.04186222, -0.0016662496, -0.043671202, -0.04225616, 0.021274379], "categories": [], "categories_nodes": [], "categories_segments": [], "categories_sizes": [], "default_left": [0, 0, 0, 0, 0, 0, 0, 0, 0, 0, 0, 0, 0, 0, 0, 0, 0, 0, 0, 0, 0, 0, 0, 0, 0, 0, 0, 0, 0, 0, 0, 0, 0, 0, 0, 0, 0, 0, 0, 0, 0, 0, 0, 0, 0, 0, 0, 0, 0, 0, 0, 0, 0, 0, 0, 0, 0, 0, 0, 0, 0, 0, 0, 0, 0, 0, 0, 0, 0, 0, 0, 0, 0, 0, 0, 0, 0], "id": 5, "left_children": [1, 3, 5, 7, 9, 11, 13, 15, 17, 19, 21, 23, 25, 27, 29, 31, -1, -1, 33, 35, 37, 39, -1, -1, -1, 41, -1, -1, 43, 45, 47, 49, -1, 51, 53, 55, -1, 57, 59, -1, 61, -1, -1, -1, -1, 63, 65, -1, -1, -1, -1, -1, -1, -1, -1, 67, -1, 69, -1, -1, 71, -1, 73, 75, -1, -1, -1, -1, -1, -1, -1, -1, -1, -1, -1, -1, -1], "loss_changes": [24.698923, 31.059425, 9.821377, 6.084593, 10.0165825, 2.6362343, 9.118552, 4.785223, 4.4344096, 8.471851, 7.4503293, 2.775252, 2.5153122, 4.5159264, 5.5340548, 1.0367298, 0.0, 0.0, 4.453248, 5.5964236, 2.7885303, 4.953957, 0.0, 0.0, 0.0, 0.965786, 0.0, 0.0, 3.0818448, 3.641924, 2.8417668, 0.38067627, 0.0, 1.895621, 0.09174824, 2.7777817, 0.0, 1.6730595, 6.491405, 0.0, 4.483349, 0.0, 0.0, 0.0, 0.0, 4.3748302, 3.6817508, 0.0, 0.0, 0.0, 0.0, 0.0, 0.0, 0.0, 0.0, 1.7917051, 0.0, 0.20393562, 0.0, 0.0, 1.6764212, 0.0, 1.4456916, 4.901059, 0.0, 0.0, 0.0, 0.0, 0.0, 0.0, 0.0, 0.0, 0.0, 0.0, 0.0, 0.0, 0.0], "parents": [2147483647, 0, 0, 1, 1, 2, 2, 3, 3, 4, 4, 5, 5, 6, 6, 7, 7, 8, 8, 9, 9, 10, 10, 11, 11, 12, 12, 13, 13, 14, 14, 15, 15, 18, 18, 19, 19, 20, 20, 21, 21, 25, 25, 28, 28, 29, 29, 30, 30, 31, 31, 33, 33, 34, 34, 35, 35, 37, 37, 38, 38, 40, 40, 45, 45, 46, 46, 55, 55, 57, 57, 60, 60, 62, 62, 63, 63], "right_children": [2, 4, 6, 8, 10, 12, 14, 16, 18, 20, 22, 24, 26, 28, 30, 32, -1, -1, 34, 36, 38, 40, -1, -1, -1, 42, -1, -1, 44, 46, 48, 50, -1, 52, 54, 56, -1, 58, 60, -1, 62, -1, -1, -1, -1, 64, 66, -1, -1, -1, -1, -1, -1, -1, -1, 68, -1, 70, -1, -1, 72, -1, 74, 76, -1, -1, -1, -1, -1, -1, -1, -1, -1, -1, -1, -1, -1], "split_conditions": [-0.08386718, -0.6700366, 0.086225376, -0.26181468, -0.23722441, -0.62154233, -0.7987876, 1.1278331, -1.0397838, -0.6877853, 0.72494066, 0.041470964, 1.7223017, 0.4556186, 0.79435533, -0.17971307, 0.0054116943, 0.03169408, -0.018422382, 0.034204204, -0.14983608, -0.22612035, 0.036491003, 0.010603451, -0.04140332, 1.5903698, -0.011963089, 0.035381377, -0.50185114, 0.7856727, 0.07617035, -0.7905724, -0.012773657, -0.5562817, 0.16768877, -0.23997828, 0.030365199, 1.281787, -0.6897832, -0.05198127, -0.14367159, -0.06750535, -0.018884616, 0.016190493, -0.040916324, -0.09010671, 0.056695525, 0.032385822, -0.018842474, -0.06399222, -0.020234251, -0.014325593, 0.03023477, -0.051722966, -0.014790477, 0.09033329, 0.014651764, -1.2712879, 0.0056801713, -0.032933977, -0.78114986, 0.027523417, -0.777639, 1.0935671, -0.06545527, -0.034625366, 0.022181323, -0.046954874, -0.002938797, 0.0141978115, 0.049712673, -0.0015389987, 0.04186222, -0.0016662496, -0.043671202, -0.04225616, 0.021274379], "split_indices": [27, 26, 24, 22, 27, 9, 11, 14, 14, 3, 3, 1, 9, 25, 4, 9, 0, 0, 22, 9, 25, 5, 0, 0, 0, 1, 0, 0, 6, 22, 0, 26, 0, 2, 17, 26, 0, 0, 5, 0, 1, 0, 0, 0, 0, 25, 9, 0, 0, 0, 0, 0, 0, 0, 0, 6, 0, 6, 0, 0, 0, 0, 19, 11, 0, 0, 0, 0, 0, 0, 0, 0, 0, 0, 0, 0, 0], "split_type": [0, 0, 0, 0, 0, 0, 0, 0, 0, 0, 0, 0, 0, 0, 0, 0, 0, 0, 0, 0, 0, 0, 0, 0, 0, 0, 0, 0, 0, 0, 0, 0, 0, 0, 0, 0, 0, 0, 0, 0, 0, 0, 0, 0, 0, 0, 0, 0, 0, 0, 0, 0, 0, 0, 0, 0, 0, 0, 0, 0, 0, 0, 0, 0, 0, 0, 0, 0, 0, 0, 0, 0, 0, 0, 0, 0, 0], "sum_hessian": [96.312546, 57.691566, 38.62098, 18.43206, 39.259506, 17.125927, 21.49505, 11.725042, 6.7070184, 29.121029, 10.138477, 2.9162831, 14.209644, 6.0077825, 15.4872675, 10.288544, 1.4364986, 1.4163204, 5.2906976, 7.8958397, 21.22519, 8.222466, 1.9160111, 1.6830561, 1.233227, 12.502175, 1.7074689, 3.5592306, 2.4485517, 12.591299, 2.8959692, 9.065545, 1.2229989, 2.405291, 2.8854065, 5.286547, 2.6092923, 15.059136, 6.166052, 3.1675723, 5.054894, 11.034257, 1.4679185, 1.2113354, 1.2372162, 9.472549, 3.118749, 1.4300668, 1.4659022, 7.6075106, 1.4580345, 1.208941, 1.1963502, 1.6844088, 1.2009978, 4.097124, 1.1894233, 13.618005, 1.4411316, 1.4668114, 4.69924, 2.1530907, 2.9018033, 3.5859573, 5.8865924, 1.4479266, 1.6708224, 2.4276276, 1.6694964, 1.1807345, 12.437271, 1.1772473, 3.5219932, 1.6857758, 1.2160275, 1.9307146, 1.6552427], "tree_param": {"num_deleted": "0", "num_feature": "28", "num_nodes": "77", "size_leaf_vector": "1"}}, {"base_weights": [0.013387909, 0.29596657, -1.3440293, -0.30657467, 0.5477739, 0.0062876716, -1.5006881, -0.576884, 0.033985898, -0.090148546, 0.8252857, -0.005934805, -1.6273233, -0.0416669, -1.270102, -0.42504632, 0.8877131, 0.99405247, -0.9808222, -1.7259307, -0.011280517, -0.49240738, 0.7483347, 0.0015602419, -1.4790161, 0.033412207, -0.6899254, 0.03910368, -0.00039288288, 0.46541676, 1.2419364, 0.0007351703, -0.04772302, -0.01262664, -0.061224062, -1.2084215, 0.13805577, -0.006182296, 0.039302297, -0.01271141, -0.057345692, -0.05039016, -0.2525545, 1.063575, -0.5110862, -0.0017152101, 1.3087322, -0.010689743, -0.048979085, 0.03508208, -0.52825654, -0.641566, 0.033185698, 1.2396373, -0.000887192, -1.0499966, 0.028997138, 1.4111303, 0.0067912345, -0.04246062, 0.009743584, 0.014971307, -0.035920452, 0.013552411, 0.04432903, -5.1644238e-05, -0.047225256, 0.0114085395, 0.048465855], "categories": [], "categories_nodes": [], "categories_segments": [], "categories_sizes": [], "default_left": [0, 0, 0, 0, 0, 0, 0, 0, 0, 0, 0, 0, 0, 0, 0, 0, 0, 0, 0, 0, 0, 0, 0, 0, 0, 0, 0, 0, 0, 0, 0, 0, 0, 0, 0, 0, 0, 0, 0, 0, 0, 0, 0, 0, 0, 0, 0, 0, 0, 0, 0, 0, 0, 0, 0, 0, 0, 0, 0, 0, 0, 0, 0, 0, 0, 0, 0, 0, 0], "id": 6, "left_children": [1, 3, 5, 7, 9, -1, 11, 13, -1, 15, 17, -1, 19, 21, 23, 25, 27, 29, 31, 33, -1, 35, 37, -1, 39, -1, 41, -1, -1, 43, 45, -1, -1, -1, -1, 47, 49, -1, -1, -1, -1, -1, 51, 53, 55, -1, 57, -1, -1, -1, 59, 61, -1, 63, -1, 65, -1, 67, -1, -1, -1, -1, -1, -1, -1, -1, -1, -1, -1], "loss_changes": [37.454678, 12.424543, 4.3232155, 9.353, 10.22386, 0.0, 2.285946, 7.7197313, 0.0, 6.364197, 13.182703, 0.0, 1.1839905, 4.946257, 2.5710373, 6.0959606, 1.2942066, 4.286747, 1.8067381, 1.1965561, 0.0, 4.1342053, 2.2568007, 0.0, 1.4313469, 0.0, 4.164515, 0.0, 0.0, 8.399948, 2.1989975, 0.0, 0.0, 0.0, 0.0, 0.5058203, 3.9502683, 0.0, 0.0, 0.0, 0.0, 0.0, 5.229866, 1.6962776, 5.218607, 0.0, 2.371521, 0.0, 0.0, 0.0, 2.751255, 4.201799, 0.0, 0.02171421, 0.0, 1.7720556, 0.0, 0.4795723, 0.0, 0.0, 0.0, 0.0, 0.0, 0.0, 0.0, 0.0, 0.0, 0.0, 0.0], "parents": [2147483647, 0, 0, 1, 1, 2, 2, 3, 3, 4, 4, 6, 6, 7, 7, 9, 9, 10, 10, 12, 12, 13, 13, 14, 14, 15, 15, 16, 16, 17, 17, 18, 18, 19, 19, 21, 21, 22, 22, 24, 24, 26, 26, 29, 29, 30, 30, 35, 35, 36, 36, 42, 42, 43, 43, 44, 44, 46, 46, 50, 50, 51, 51, 53, 53, 55, 55, 57, 57], "right_children": [2, 4, 6, 8, 10, -1, 12, 14, -1, 16, 18, -1, 20, 22, 24, 26, 28, 30, 32, 34, -1, 36, 38, -1, 40, -1, 42, -1, -1, 44, 46, -1, -1, -1, -1, 48, 50, -1, -1, -1, -1, -1, 52, 54, 56, -1, 58, -1, -1, -1, 60, 62, -1, 64, -1, 66, -1, 68, -1, -1, -1, -1, -1, -1, -1, -1, -1, -1, -1], "split_conditions": [0.84341973, -0.57337993, -1.5180967, 0.6909505, -0.5595614, 0.0062876716, -1.3841065, -0.059899513, 0.033985898, 0.085984975, 1.5944006, -0.005934805, 1.3965214, 0.41579723, -1.0198734, -1.1788961, 0.802071, -0.4362196, -0.5187308, -1.229672, -0.011280517, 0.35428298, -0.85496444, 0.0015602419, -0.70398587, 0.033412207, -0.7957014, 0.03910368, -0.00039288288, -0.08781187, -1.1370856, 0.0007351703, -0.04772302, -0.01262664, -0.061224062, -1.0561135, -0.46178555, -0.006182296, 0.039302297, -0.01271141, -0.057345692, -0.05039016, 0.46139267, 0.6757404, 0.51081496, -0.0017152101, 1.442379, -0.010689743, -0.048979085, 0.03508208, 0.98849165, -0.15401429, 0.033185698, -0.81684583, -0.000887192, -0.5167639, 0.028997138, -1.244807, 0.0067912345, -0.04246062, 0.009743584, 0.014971307, -0.035920452, 0.013552411, 0.04432903, -5.1644238e-05, -0.047225256, 0.0114085395, 0.048465855], "split_indices": [25, 25, 15, 9, 5, 0, 6, 3, 0, 22, 0, 0, 18, 15, 22, 6, 10, 10, 2, 18, 0, 7, 25, 0, 0, 0, 19, 0, 0, 25, 13, 0, 0, 0, 0, 26, 15, 0, 0, 0, 0, 0, 17, 3, 4, 0, 19, 0, 0, 0, 7, 19, 0, 0, 0, 6, 0, 22, 0, 0, 0, 0, 0, 0, 0, 0, 0, 0, 0], "split_type": [0, 0, 0, 0, 0, 0, 0, 0, 0, 0, 0, 0, 0, 0, 0, 0, 0, 0, 0, 0, 0, 0, 0, 0, 0, 0, 0, 0, 0, 0, 0, 0, 0, 0, 0, 0, 0, 0, 0, 0, 0, 0, 0, 0, 0, 0, 0, 0, 0, 0, 0, 0, 0, 0, 0, 0, 0, 0, 0, 0, 0, 0, 0, 0, 0, 0, 0, 0, 0], "sum_hessian": [95.6087, 79.78213, 15.826581, 23.450565, 56.33156, 1.4487507, 14.3778305, 19.949297, 3.501269, 17.281454, 39.050106, 1.4665351, 12.911296, 11.855813, 8.093484, 13.293895, 3.9875588, 36.124195, 2.92591, 11.678752, 1.2325436, 7.7886496, 4.0671635, 1.2143934, 6.8790903, 1.6449808, 11.648913, 2.7961898, 1.191369, 12.450309, 23.673887, 1.2024206, 1.7234894, 1.2233106, 10.455441, 3.2176547, 4.570995, 1.4635956, 2.6035678, 1.704965, 5.174125, 3.1930757, 8.455838, 7.66558, 4.7847285, 1.173847, 22.50004, 1.2373278, 1.9803268, 1.6825005, 2.8884945, 6.817088, 1.6387503, 6.4817204, 1.1838595, 3.6140823, 1.1706463, 20.338276, 2.1617632, 1.2240014, 1.6644932, 1.9384162, 4.8786716, 1.171533, 5.3101873, 1.1968658, 2.4172165, 1.1302309, 19.208046], "tree_param": {"num_deleted": "0", "num_feature": "28", "num_nodes": "69", "size_leaf_vector": "1"}}, {"base_weights": [-0.4065392, -0.006093051, -0.9859823, -1.0136001, 0.48441577, -1.5118699, -0.51655686, -1.4017057, -0.23703423, 0.76849574, -0.32023486, -0.4678506, -1.6804374, 0.45389882, -0.8961274, -1.6131043, 0.0053471047, 0.030953653, -0.643502, -0.094306834, 1.0815173, -0.7313847, 0.03642001, 0.010499774, -0.039802857, -1.8264863, -0.010974989, 0.03483037, -0.45244482, -1.1561681, 0.24755387, -1.7259598, -0.012467396, 0.30649054, -1.308612, -0.64245856, 0.029784422, 1.3069081, 0.4281244, -1.062237, 0.020538704, -0.06461328, -0.017985418, 0.016249485, -0.03921042, -1.4281934, -0.1802505, 0.031507928, -0.017783074, -0.061595533, -0.019853914, 0.029886302, -0.013838595, -0.050988615, -0.014763278, -0.97538316, 0.014352143, 1.4066488, 0.006179537, -0.031485103, 0.9546262, -1.3972069, 0.014488824, -0.4376448, -0.06256159, -0.03388978, 0.02194715, -0.045542553, -0.0034118353, 0.013982812, 0.04874982, -0.0021839922, 0.041164525, 0.00034678014, -0.056985356, -0.041514065, 0.02083994], "categories": [], "categories_nodes": [], "categories_segments": [], "categories_sizes": [], "default_left": [0, 0, 0, 0, 0, 0, 0, 0, 0, 0, 0, 0, 0, 0, 0, 0, 0, 0, 0, 0, 0, 0, 0, 0, 0, 0, 0, 0, 0, 0, 0, 0, 0, 0, 0, 0, 0, 0, 0, 0, 0, 0, 0, 0, 0, 0, 0, 0, 0, 0, 0, 0, 0, 0, 0, 0, 0, 0, 0, 0, 0, 0, 0, 0, 0, 0, 0, 0, 0, 0, 0, 0, 0, 0, 0, 0, 0], "id": 7, "left_children": [1, 3, 5, 7, 9, 11, 13, 15, 17, 19, 21, 23, 25, 27, 29, 31, -1, -1, 33, 35, 37, 39, -1, -1, -1, 41, -1, -1, 43, 45, 47, 49, -1, 51, 53, 55, -1, 57, 59, 61, -1, -1, -1, -1, -1, 63, 65, -1, -1, -1, -1, -1, -1, -1, -1, 67, -1, 69, -1, -1, 71, 73, -1, 75, -1, -1, -1, -1, -1, -1, -1, -1, -1, -1, -1, -1, -1], "loss_changes": [22.5359, 29.378208, 9.018326, 5.5337944, 9.387259, 2.4172287, 8.691956, 4.4771194, 4.2407365, 8.163694, 7.2704287, 2.602631, 2.415226, 4.2157907, 5.1947613, 0.9404621, 0.0, 0.0, 4.3766313, 5.375002, 2.677967, 4.768813, 0.0, 0.0, 0.0, 0.9092598, 0.0, 0.0, 2.924779, 3.3592625, 2.6192048, 0.29364967, 0.0, 1.8206451, 0.06704044, 2.6647844, 0.0, 1.5131245, 6.0514326, 4.5064564, 0.0, 0.0, 0.0, 0.0, 0.0, 3.849144, 3.5554135, 0.0, 0.0, 0.0, 0.0, 0.0, 0.0, 0.0, 0.0, 1.6013036, 0.0, 0.18097496, 0.0, 0.0, 1.6958504, 2.9159222, 0.0, 4.7109885, 0.0, 0.0, 0.0, 0.0, 0.0, 0.0, 0.0, 0.0, 0.0, 0.0, 0.0, 0.0, 0.0], "parents": [2147483647, 0, 0, 1, 1, 2, 2, 3, 3, 4, 4, 5, 5, 6, 6, 7, 7, 8, 8, 9, 9, 10, 10, 11, 11, 12, 12, 13, 13, 14, 14, 15, 15, 18, 18, 19, 19, 20, 20, 21, 21, 25, 25, 28, 28, 29, 29, 30, 30, 31, 31, 33, 33, 34, 34, 35, 35, 37, 37, 38, 38, 39, 39, 45, 45, 46, 46, 55, 55, 57, 57, 60, 60, 61, 61, 63, 63], "right_children": [2, 4, 6, 8, 10, 12, 14, 16, 18, 20, 22, 24, 26, 28, 30, 32, -1, -1, 34, 36, 38, 40, -1, -1, -1, 42, -1, -1, 44, 46, 48, 50, -1, 52, 54, 56, -1, 58, 60, 62, -1, -1, -1, -1, -1, 64, 66, -1, -1, -1, -1, -1, -1, -1, -1, 68, -1, 70, -1, -1, 72, 74, -1, 76, -1, -1, -1, -1, -1, -1, -1, -1, -1, -1, -1, -1, -1], "split_conditions": [-0.08386718, -0.6700366, 0.086225376, -0.26181468, -0.23722441, -0.62154233, -0.7987876, 1.1278331, -1.0397838, -0.6877853, 0.72494066, 0.041470964, 1.7223017, 0.4556186, 0.79435533, -0.17971307, 0.0053471047, 0.030953653, -0.018422382, 0.034204204, -0.14983608, 0.43727428, 0.03642001, 0.010499774, -0.039802857, 1.5903698, -0.010974989, 0.03483037, -0.50185114, 0.7856727, 0.07617035, -0.7905724, -0.012467396, 0.870704, 0.16768877, -0.23997828, 0.029784422, 1.281787, -0.6897832, 1.3850012, 0.020538704, -0.06461328, -0.017985418, 0.016249485, -0.03921042, -0.09010671, 0.056695525, 0.031507928, -0.017783074, -0.061595533, -0.019853914, 0.029886302, -0.013838595, -0.050988615, -0.014763278, 0.09033329, 0.014352143, -1.2712879, 0.006179537, -0.031485103, -0.78114986, -0.7987707, 0.014488824, 1.0935671, -0.06256159, -0.03388978, 0.02194715, -0.045542553, -0.0034118353, 0.013982812, 0.04874982, -0.0021839922, 0.041164525, 0.00034678014, -0.056985356, -0.041514065, 0.02083994], "split_indices": [27, 26, 24, 22, 27, 9, 11, 14, 14, 3, 3, 1, 9, 25, 4, 9, 0, 0, 22, 9, 25, 5, 0, 0, 0, 1, 0, 0, 6, 22, 0, 26, 0, 19, 17, 26, 0, 0, 5, 17, 0, 0, 0, 0, 0, 25, 9, 0, 0, 0, 0, 0, 0, 0, 0, 6, 0, 6, 0, 0, 0, 17, 0, 11, 0, 0, 0, 0, 0, 0, 0, 0, 0, 0, 0, 0, 0], "split_type": [0, 0, 0, 0, 0, 0, 0, 0, 0, 0, 0, 0, 0, 0, 0, 0, 0, 0, 0, 0, 0, 0, 0, 0, 0, 0, 0, 0, 0, 0, 0, 0, 0, 0, 0, 0, 0, 0, 0, 0, 0, 0, 0, 0, 0, 0, 0, 0, 0, 0, 0, 0, 0, 0, 0, 0, 0, 0, 0, 0, 0, 0, 0, 0, 0, 0, 0, 0, 0, 0, 0, 0, 0, 0, 0, 0, 0], "sum_hessian": [96.14843, 57.45351, 38.69492, 18.463331, 38.99018, 17.20256, 21.492357, 11.774009, 6.6893215, 28.849771, 10.140409, 2.9162533, 14.286307, 5.9876895, 15.504667, 10.34183, 1.4321791, 1.3973892, 5.291932, 7.86624, 20.98353, 8.228235, 1.9121745, 1.675941, 1.2403123, 12.57529, 1.7110178, 3.5317838, 2.455906, 12.62352, 2.8811479, 9.118394, 1.2234358, 2.4012942, 2.890638, 5.2838607, 2.5823793, 14.858007, 6.125523, 6.7762423, 1.4519926, 11.103493, 1.4717966, 1.2105649, 1.245341, 9.509439, 3.1140802, 1.4107493, 1.4703984, 7.657732, 1.4606621, 1.1876906, 1.2136035, 1.6917443, 1.1988938, 4.102104, 1.1817566, 13.411083, 1.4469246, 1.4780319, 4.6474915, 5.5915837, 1.1846585, 3.5802789, 5.9291606, 1.4528267, 1.6612535, 2.4431927, 1.6589115, 1.1737962, 12.237287, 1.1669188, 3.4805727, 1.1910145, 4.400569, 1.9366281, 1.6436508], "tree_param": {"num_deleted": "0", "num_feature": "28", "num_nodes": "77", "size_leaf_vector": "1"}}, {"base_weights": [-0.39239484, -0.0065528885, -0.9482979, -0.98843944, 0.4751075, -1.4550127, -0.49479356, -1.3597534, -0.23970194, 0.75276554, -0.30482274, -0.45805046, -1.6143327, 0.45444253, -0.865399, -1.5625, 0.005074666, 0.03025431, -0.63529444, -0.09513885, 1.0627499, -0.7110297, 0.036304437, -0.034097567, 0.015374157, -1.7571965, -0.010078836, 0.034245458, -0.42229217, -1.1172483, 0.24711601, -1.6742109, -0.011743495, 0.30551606, -1.2921448, -0.63034374, 0.02924485, 1.2852263, 0.42127275, -1.0356026, 0.020411305, -0.062192563, -0.017148178, 0.016297195, -0.03766017, -1.3788387, -0.17510135, 0.030683154, -0.016796516, -0.0599707, -0.022454444, -0.013642884, 0.029714609, -0.05026924, -0.014640192, 0.014350153, -0.9592132, 1.3818676, 0.0067527066, -0.030004706, 0.9333206, -1.3588386, 0.014060703, -0.43530324, -0.06004429, -0.033208746, 0.021723663, 0.00029880434, -1.2587591, 0.013847461, 0.047886163, -0.002804624, 0.04057778, 0.00036520613, -0.055340268, -0.040820383, 0.020409388, -0.0128222965, -0.05022473], "categories": [], "categories_nodes": [], "categories_segments": [], "categories_sizes": [], "default_left": [0, 0, 0, 0, 0, 0, 0, 0, 0, 0, 0, 0, 0, 0, 0, 0, 0, 0, 0, 0, 0, 0, 0, 0, 0, 0, 0, 0, 0, 0, 0, 0, 0, 0, 0, 0, 0, 0, 0, 0, 0, 0, 0, 0, 0, 0, 0, 0, 0, 0, 0, 0, 0, 0, 0, 0, 0, 0, 0, 0, 0, 0, 0, 0, 0, 0, 0, 0, 0, 0, 0, 0, 0, 0, 0, 0, 0, 0, 0], "id": 8, "left_children": [1, 3, 5, 7, 9, 11, 13, 15, 17, 19, 21, 23, 25, 27, 29, 31, -1, -1, 33, 35, 37, 39, -1, -1, -1, 41, -1, -1, 43, 45, 47, 49, -1, 51, 53, 55, -1, 57, 59, 61, -1, -1, -1, -1, -1, 63, 65, -1, -1, -1, -1, -1, -1, -1, -1, -1, 67, 69, -1, -1, 71, 73, -1, 75, -1, -1, -1, -1, 77, -1, -1, -1, -1, -1, -1, -1, -1, -1, -1], "loss_changes": [20.755684, 27.968401, 8.391853, 5.0843735, 8.823287, 2.1532364, 8.2873535, 4.1601925, 4.055759, 7.868992, 7.0768747, 2.4998221, 2.3375854, 3.9281604, 4.8943987, 0.9474182, 0.0, 0.0, 4.2807775, 5.1487913, 2.5588913, 4.596085, 0.0, 0.0, 0.0, 0.87469864, 0.0, 0.0, 2.7817454, 3.115673, 2.4166467, 0.055805206, 0.0, 1.786369, 0.054868698, 2.6029856, 0.0, 1.3566895, 5.631842, 4.237706, 0.0, 0.0, 0.0, 0.0, 0.0, 3.4078655, 3.4367673, 0.0, 0.0, 0.0, 0.0, 0.0, 0.0, 0.0, 0.0, 0.0, 1.4908214, 0.15352058, 0.0, 0.0, 1.7192011, 2.7442589, 0.0, 4.5294657, 0.0, 0.0, 0.0, 0.0, 0.26646662, 0.0, 0.0, 0.0, 0.0, 0.0, 0.0, 0.0, 0.0, 0.0, 0.0], "parents": [2147483647, 0, 0, 1, 1, 2, 2, 3, 3, 4, 4, 5, 5, 6, 6, 7, 7, 8, 8, 9, 9, 10, 10, 11, 11, 12, 12, 13, 13, 14, 14, 15, 15, 18, 18, 19, 19, 20, 20, 21, 21, 25, 25, 28, 28, 29, 29, 30, 30, 31, 31, 33, 33, 34, 34, 35, 35, 37, 37, 38, 38, 39, 39, 45, 45, 46, 46, 56, 56, 57, 57, 60, 60, 61, 61, 63, 63, 68, 68], "right_children": [2, 4, 6, 8, 10, 12, 14, 16, 18, 20, 22, 24, 26, 28, 30, 32, -1, -1, 34, 36, 38, 40, -1, -1, -1, 42, -1, -1, 44, 46, 48, 50, -1, 52, 54, 56, -1, 58, 60, 62, -1, -1, -1, -1, -1, 64, 66, -1, -1, -1, -1, -1, -1, -1, -1, -1, 68, 70, -1, -1, 72, 74, -1, 76, -1, -1, -1, -1, 78, -1, -1, -1, -1, -1, -1, -1, -1, -1, -1], "split_conditions": [-0.08386718, -0.6700366, 0.086225376, -0.26181468, -0.23722441, -0.62154233, -0.7987876, 1.1278331, -1.0397838, -0.6877853, 0.72494066, -0.45305368, 1.7223017, 0.4556186, 0.79435533, 0.96412057, 0.005074666, 0.03025431, -0.018422382, 0.034204204, -0.14983608, 0.43727428, 0.036304437, -0.034097567, 0.015374157, 1.5903698, -0.010078836, 0.034245458, -0.50185114, 0.7856727, 0.07617035, -0.32179734, -0.011743495, -0.5562817, 0.24310443, -0.73944044, 0.02924485, 1.281787, -0.6897832, 1.3850012, 0.020411305, -0.062192563, -0.017148178, 0.016297195, -0.03766017, -0.09010671, 0.056695525, 0.030683154, -0.016796516, -0.0599707, -0.022454444, -0.013642884, 0.029714609, -0.05026924, -0.014640192, 0.014350153, -1.2630644, -1.2712879, 0.0067527066, -0.030004706, -0.78114986, -0.7987707, 0.014060703, 1.0935671, -0.06004429, -0.033208746, 0.021723663, 0.00029880434, -0.7279541, 0.013847461, 0.047886163, -0.002804624, 0.04057778, 0.00036520613, -0.055340268, -0.040820383, 0.020409388, -0.0128222965, -0.05022473], "split_indices": [27, 26, 24, 22, 27, 9, 11, 14, 14, 3, 3, 14, 9, 25, 4, 0, 0, 0, 22, 9, 25, 5, 0, 0, 0, 1, 0, 0, 6, 22, 0, 23, 0, 2, 16, 17, 0, 0, 5, 17, 0, 0, 0, 0, 0, 25, 9, 0, 0, 0, 0, 0, 0, 0, 0, 0, 3, 6, 0, 0, 0, 17, 0, 11, 0, 0, 0, 0, 19, 0, 0, 0, 0, 0, 0, 0, 0, 0, 0], "split_type": [0, 0, 0, 0, 0, 0, 0, 0, 0, 0, 0, 0, 0, 0, 0, 0, 0, 0, 0, 0, 0, 0, 0, 0, 0, 0, 0, 0, 0, 0, 0, 0, 0, 0, 0, 0, 0, 0, 0, 0, 0, 0, 0, 0, 0, 0, 0, 0, 0, 0, 0, 0, 0, 0, 0, 0, 0, 0, 0, 0, 0, 0, 0, 0, 0, 0, 0, 0, 0, 0, 0, 0, 0, 0, 0, 0, 0, 0, 0], "sum_hessian": [95.79624, 57.144855, 38.651386, 18.46038, 38.684475, 17.211763, 21.439623, 11.794961, 6.6654196, 28.553982, 10.130493, 2.905475, 14.30629, 5.956627, 15.482995, 10.370899, 1.4240617, 1.3770955, 5.288324, 7.8298826, 20.724098, 8.223915, 1.9065782, 1.7297957, 1.1756792, 12.595383, 1.7109067, 3.4985907, 2.4580362, 12.621505, 2.86149, 9.143461, 1.2274381, 2.3941073, 2.8942168, 5.2773333, 2.5525491, 14.642322, 6.081777, 6.778783, 1.4451323, 11.122291, 1.4730922, 1.2094052, 1.248631, 9.515881, 3.1056244, 1.389738, 1.4717522, 7.419184, 1.7242773, 1.2142432, 1.1798642, 1.6966051, 1.1976117, 1.1757199, 4.1016135, 13.188666, 1.4536551, 1.4868418, 4.5949354, 5.603622, 1.1751606, 3.5710583, 5.9448223, 1.4553123, 1.6503122, 1.1983716, 2.9032419, 1.1670911, 12.021575, 1.1563015, 3.438634, 1.1843083, 4.419314, 1.940211, 1.6308473, 1.2054521, 1.6977898], "tree_param": {"num_deleted": "0", "num_feature": "28", "num_nodes": "79", "size_leaf_vector": "1"}}, {"base_weights": [0.019903876, 0.29302874, -1.2835963, -0.28448254, 0.5359592, 0.006656075, -1.4363925, -0.5445278, 0.03335054, -0.081387654, 0.8065058, -0.0059354943, -1.5560793, -0.017789515, -1.2283771, -0.4078594, 0.8757673, 0.9727223, -0.950636, -0.055043794, -0.010529923, -0.46018216, 0.75424623, 0.0017774526, -1.4321655, 0.032945175, -0.6659252, 0.038614817, -0.0003726388, 1.1752945, 0.36812386, 0.0008311482, -0.046268165, -1.1498393, 0.14680858, -0.005257349, 0.039064996, -0.01255597, -0.055391964, -0.04935078, -0.23301417, 1.2809644, 0.26851648, -0.5978935, 0.94893384, -0.009429558, -0.047165535, 0.034766477, -0.5068607, -0.6108447, 0.032744445, 1.3793781, 0.2680257, -0.021703074, 0.03375606, 0.018055007, -0.04235216, 0.042679563, -0.0024144198, -0.04125191, 0.0098548, 0.014669725, -0.03433441, 0.011820943, 0.04730437, -0.016375251, 0.030028975], "categories": [], "categories_nodes": [], "categories_segments": [], "categories_sizes": [], "default_left": [0, 0, 0, 0, 0, 0, 0, 0, 0, 0, 0, 0, 0, 0, 0, 0, 0, 0, 0, 0, 0, 0, 0, 0, 0, 0, 0, 0, 0, 0, 0, 0, 0, 0, 0, 0, 0, 0, 0, 0, 0, 0, 0, 0, 0, 0, 0, 0, 0, 0, 0, 0, 0, 0, 0, 0, 0, 0, 0, 0, 0, 0, 0, 0, 0, 0, 0], "id": 9, "left_children": [1, 3, 5, 7, 9, -1, 11, 13, -1, 15, 17, -1, 19, 21, 23, 25, 27, 29, 31, -1, -1, 33, 35, -1, 37, -1, 39, -1, -1, 41, 43, -1, -1, 45, 47, -1, -1, -1, -1, -1, 49, 51, 53, 55, 57, -1, -1, -1, 59, 61, -1, 63, 65, -1, -1, -1, -1, -1, -1, -1, -1, -1, -1, -1, -1, -1, -1], "loss_changes": [34.60908, 11.419828, 4.104145, 8.709409, 9.565548, 0.0, 2.0410633, 7.531225, 0.0, 6.0567636, 12.50189, 0.0, 1.1231384, 4.7392087, 2.4555826, 5.8045025, 1.2556937, 4.063099, 1.7122016, 0.0, 0.0, 3.851029, 2.1136682, 0.0, 1.2873173, 0.0, 4.116799, 0.0, 0.0, 2.24691, 6.5531163, 0.0, 0.0, 0.57221174, 3.7888384, 0.0, 0.0, 0.0, 0.0, 0.0, 4.9387217, 2.0179863, 3.4564626, 4.22907, 2.4791145, 0.0, 0.0, 0.0, 2.6475186, 3.9002047, 0.0, 0.37622452, 2.0581136, 0.0, 0.0, 0.0, 0.0, 0.0, 0.0, 0.0, 0.0, 0.0, 0.0, 0.0, 0.0, 0.0, 0.0], "parents": [2147483647, 0, 0, 1, 1, 2, 2, 3, 3, 4, 4, 6, 6, 7, 7, 9, 9, 10, 10, 12, 12, 13, 13, 14, 14, 15, 15, 16, 16, 17, 17, 18, 18, 21, 21, 22, 22, 24, 24, 26, 26, 29, 29, 30, 30, 33, 33, 34, 34, 40, 40, 41, 41, 42, 42, 43, 43, 44, 44, 48, 48, 49, 49, 51, 51, 52, 52], "right_children": [2, 4, 6, 8, 10, -1, 12, 14, -1, 16, 18, -1, 20, 22, 24, 26, 28, 30, 32, -1, -1, 34, 36, -1, 38, -1, 40, -1, -1, 42, 44, -1, -1, 46, 48, -1, -1, -1, -1, -1, 50, 52, 54, 56, 58, -1, -1, -1, 60, 62, -1, 64, 66, -1, -1, -1, -1, -1, -1, -1, -1, -1, -1, -1, -1, -1, -1], "split_conditions": [0.84341973, -0.57337993, -1.5180967, 0.6909505, -0.5595614, 0.006656075, -1.3841065, -0.059899513, 0.03335054, 0.085984975, 1.5944006, -0.0059354943, 1.2555122, 0.41579723, -1.0198734, -1.1788961, 0.802071, 0.053744473, -0.5187308, -0.055043794, -0.010529923, 0.35428298, -0.85496444, 0.0017774526, -0.70398587, 0.032945175, -0.7957014, 0.038614817, -0.0003726388, 1.0209845, -0.4362196, 0.0008311482, -0.046268165, -0.6963973, -0.46178555, -0.005257349, 0.039064996, -0.01255597, -0.055391964, -0.04935078, 0.46139267, 0.85739577, 0.3582593, -0.63807064, 0.9353692, -0.009429558, -0.047165535, 0.034766477, 0.98849165, -0.15401429, 0.032744445, -1.1068808, -0.21785219, -0.021703074, 0.03375606, 0.018055007, -0.04235216, 0.042679563, -0.0024144198, -0.04125191, 0.0098548, 0.014669725, -0.03433441, 0.011820943, 0.04730437, -0.016375251, 0.030028975], "split_indices": [25, 25, 15, 9, 5, 0, 6, 3, 0, 22, 0, 0, 15, 15, 22, 6, 10, 25, 2, 0, 0, 7, 25, 0, 0, 0, 19, 0, 0, 21, 10, 0, 0, 24, 15, 0, 0, 0, 0, 0, 17, 5, 27, 6, 19, 0, 0, 0, 7, 19, 0, 13, 18, 0, 0, 0, 0, 0, 0, 0, 0, 0, 0, 0, 0, 0, 0], "split_type": [0, 0, 0, 0, 0, 0, 0, 0, 0, 0, 0, 0, 0, 0, 0, 0, 0, 0, 0, 0, 0, 0, 0, 0, 0, 0, 0, 0, 0, 0, 0, 0, 0, 0, 0, 0, 0, 0, 0, 0, 0, 0, 0, 0, 0, 0, 0, 0, 0, 0, 0, 0, 0, 0, 0, 0, 0, 0, 0, 0, 0, 0, 0, 0, 0, 0, 0], "sum_hessian": [95.15503, 79.31186, 15.843166, 23.433365, 55.878494, 1.4509665, 14.3922, 19.968567, 3.4647977, 17.239567, 38.638927, 1.4661006, 12.9261, 11.859637, 8.108931, 13.282859, 3.9567082, 35.707592, 2.9313345, 11.696414, 1.2296855, 7.796192, 4.0634446, 1.2137225, 6.895208, 1.630656, 11.652203, 2.7683182, 1.1883899, 26.039177, 9.668417, 1.1993563, 1.7319782, 3.2309217, 4.5652704, 1.4720182, 2.5914264, 1.7036808, 5.191527, 3.203788, 8.448415, 22.951866, 3.087311, 3.6192982, 6.0491185, 1.2407409, 1.9901809, 1.6742547, 2.8910158, 6.8242607, 1.6241539, 20.58968, 2.3621848, 1.4368194, 1.6504916, 1.4157364, 2.2035618, 4.3755627, 1.6735559, 1.2294545, 1.6615613, 1.9316336, 4.892627, 1.1393864, 19.450294, 1.1755247, 1.18666], "tree_param": {"num_deleted": "0", "num_feature": "28", "num_nodes": "67", "size_leaf_vector": "1"}}, {"base_weights": [-0.37958035, -0.008276546, -0.9125596, -0.968492, 0.46621695, -1.4021773, -0.47343898, -1.3227973, -0.24744461, 0.7373872, -0.2890496, -0.44037068, -1.5557761, 0.45488012, -0.83515525, -1.5178474, 0.0048105763, 0.029585287, -0.63398004, -0.096052215, 1.044909, -0.6890701, 0.0361035, -0.033119712, 0.0153298285, -1.6959558, -0.009286641, 0.03357906, -0.38870218, -1.0821849, 0.25448412, -1.626037, -0.011440164, 0.30204245, -1.2848681, -0.6223873, 0.028869584, 1.265221, 0.4131639, -1.0103872, 0.020527996, -0.06003116, -0.016537702, 0.016469609, -0.03611975, -1.3347028, -0.17050692, 0.03024536, -0.015880873, -0.05817441, -0.0220189, -0.013353198, 0.029347366, -0.05004893, -0.014436468, -0.9481653, 0.014311672, 1.3590229, 0.00729187, -0.028623223, 0.91111803, -1.3269187, 0.01378115, -0.3198836, -0.055588055, -0.032557685, 0.02148959, 4.4652506e-06, -1.2377311, 0.0137113435, 0.047092747, -0.0032475935, 0.039901856, -0.054268774, 0.0009389359, -0.03200077, 0.015961384, -0.048704408, -0.013309974], "categories": [], "categories_nodes": [], "categories_segments": [], "categories_sizes": [], "default_left": [0, 0, 0, 0, 0, 0, 0, 0, 0, 0, 0, 0, 0, 0, 0, 0, 0, 0, 0, 0, 0, 0, 0, 0, 0, 0, 0, 0, 0, 0, 0, 0, 0, 0, 0, 0, 0, 0, 0, 0, 0, 0, 0, 0, 0, 0, 0, 0, 0, 0, 0, 0, 0, 0, 0, 0, 0, 0, 0, 0, 0, 0, 0, 0, 0, 0, 0, 0, 0, 0, 0, 0, 0, 0, 0, 0, 0, 0, 0], "id": 10, "left_children": [1, 3, 5, 7, 9, 11, 13, 15, 17, 19, 21, 23, 25, 27, 29, 31, -1, -1, 33, 35, 37, 39, -1, -1, -1, 41, -1, -1, 43, 45, 47, 49, -1, 51, 53, 55, -1, 57, 59, 61, -1, -1, -1, -1, -1, 63, 65, -1, -1, -1, -1, -1, -1, -1, -1, 67, -1, 69, -1, -1, 71, 73, -1, 75, -1, -1, -1, -1, 77, -1, -1, -1, -1, -1, -1, -1, -1, -1, -1], "loss_changes": [19.048967, 26.770136, 7.835182, 4.636284, 8.269315, 2.0007515, 7.884591, 3.8812256, 3.9108279, 7.590847, 6.844682, 2.3985293, 2.2635574, 3.6139994, 4.6993866, 0.8884964, 0.0, 0.0, 4.2118273, 4.991827, 2.4602451, 4.485425, 0.0, 0.0, 0.0, 0.8162613, 0.0, 0.0, 2.6565368, 2.9006834, 2.2680814, 0.015808105, 0.0, 1.7278837, 0.06782532, 2.5538688, 0.0, 1.2149506, 5.232506, 4.0512524, 0.0, 0.0, 0.0, 0.0, 0.0, 3.0123825, 3.3202713, 0.0, 0.0, 0.0, 0.0, 0.0, 0.0, 0.0, 0.0, 1.3993454, 0.0, 0.12940407, 0.0, 0.0, 1.7127504, 2.7374897, 0.0, 2.4178789, 0.0, 0.0, 0.0, 0.0, 0.14774036, 0.0, 0.0, 0.0, 0.0, 0.0, 0.0, 0.0, 0.0, 0.0, 0.0], "parents": [2147483647, 0, 0, 1, 1, 2, 2, 3, 3, 4, 4, 5, 5, 6, 6, 7, 7, 8, 8, 9, 9, 10, 10, 11, 11, 12, 12, 13, 13, 14, 14, 15, 15, 18, 18, 19, 19, 20, 20, 21, 21, 25, 25, 28, 28, 29, 29, 30, 30, 31, 31, 33, 33, 34, 34, 35, 35, 37, 37, 38, 38, 39, 39, 45, 45, 46, 46, 55, 55, 57, 57, 60, 60, 61, 61, 63, 63, 68, 68], "right_children": [2, 4, 6, 8, 10, 12, 14, 16, 18, 20, 22, 24, 26, 28, 30, 32, -1, -1, 34, 36, 38, 40, -1, -1, -1, 42, -1, -1, 44, 46, 48, 50, -1, 52, 54, 56, -1, 58, 60, 62, -1, -1, -1, -1, -1, 64, 66, -1, -1, -1, -1, -1, -1, -1, -1, 68, -1, 70, -1, -1, 72, 74, -1, 76, -1, -1, -1, -1, 78, -1, -1, -1, -1, -1, -1, -1, -1, -1, -1], "split_conditions": [-0.08386718, -0.6700366, 0.086225376, -0.26181468, -0.23722441, -0.62154233, -0.7987876, 1.1278331, -1.0397838, -0.6877853, 0.72494066, -0.45305368, 1.7223017, 0.4556186, 0.79435533, 0.96412057, 0.0048105763, 0.029585287, -0.018422382, 0.034204204, -0.14983608, 0.43727428, 0.0361035, -0.033119712, 0.0153298285, 1.5903698, -0.009286641, 0.03357906, -0.50185114, 0.7856727, 0.07617035, -0.32179734, -0.011440164, -0.5562817, 0.16768877, -0.23997828, 0.028869584, 1.281787, -0.6897832, 1.2812296, 0.020527996, -0.06003116, -0.016537702, 0.016469609, -0.03611975, -0.19338167, 0.056695525, 0.03024536, -0.015880873, -0.05817441, -0.0220189, -0.013353198, 0.029347366, -0.05004893, -0.014436468, -1.2630644, 0.014311672, -1.2712879, 0.00729187, -0.028623223, -0.78114986, -0.0062381006, 0.01378115, 1.0935671, -0.055588055, -0.032557685, 0.02148959, 4.4652506e-06, -0.35719588, 0.0137113435, 0.047092747, -0.0032475935, 0.039901856, -0.054268774, 0.0009389359, -0.03200077, 0.015961384, -0.048704408, -0.013309974], "split_indices": [27, 26, 24, 22, 27, 9, 11, 14, 14, 3, 3, 14, 9, 25, 4, 0, 0, 0, 22, 9, 25, 5, 0, 0, 0, 1, 0, 0, 6, 22, 0, 23, 0, 2, 17, 26, 0, 0, 5, 7, 0, 0, 0, 0, 0, 25, 9, 0, 0, 0, 0, 0, 0, 0, 0, 3, 0, 6, 0, 0, 0, 22, 0, 11, 0, 0, 0, 0, 24, 0, 0, 0, 0, 0, 0, 0, 0, 0, 0], "split_type": [0, 0, 0, 0, 0, 0, 0, 0, 0, 0, 0, 0, 0, 0, 0, 0, 0, 0, 0, 0, 0, 0, 0, 0, 0, 0, 0, 0, 0, 0, 0, 0, 0, 0, 0, 0, 0, 0, 0, 0, 0, 0, 0, 0, 0, 0, 0, 0, 0, 0, 0, 0, 0, 0, 0, 0, 0, 0, 0, 0, 0, 0, 0, 0, 0, 0, 0, 0, 0, 0, 0, 0, 0, 0, 0, 0, 0, 0, 0], "sum_hessian": [95.29503, 56.764893, 38.530136, 18.429226, 38.335667, 17.180643, 21.349495, 11.797612, 6.6316137, 28.22534, 10.110328, 2.8984027, 14.28224, 5.914021, 15.435474, 10.382675, 1.4149363, 1.3554243, 5.2761893, 7.792883, 20.432455, 8.213645, 1.8966832, 1.731015, 1.1673877, 12.57423, 1.7080097, 3.4562457, 2.4577754, 12.588423, 2.8470516, 9.155163, 1.2275127, 2.3839116, 2.892278, 5.2655206, 2.5273623, 14.405875, 6.026581, 6.7718644, 1.4417802, 11.1018715, 1.4723581, 1.2098053, 1.2479701, 9.494591, 3.093832, 1.3762877, 1.4707639, 7.4301944, 1.7249684, 1.2151172, 1.1687943, 1.6977895, 1.1944884, 4.0954294, 1.1700914, 12.946694, 1.4591805, 1.491805, 4.5347757, 5.5958934, 1.1759712, 2.8298395, 6.6647506, 1.4558486, 1.6379836, 1.1918329, 2.9035964, 1.1594349, 11.78726, 1.1473091, 3.387467, 4.413602, 1.1822916, 1.4587655, 1.371074, 1.7062646, 1.1973319], "tree_param": {"num_deleted": "0", "num_feature": "28", "num_nodes": "79", "size_leaf_vector": "1"}}, {"base_weights": [0.025334988, 0.28925312, -1.2271007, -0.26566142, 0.5242618, 0.007004848, -1.376546, -0.5171634, 0.03281278, -0.07433585, 0.78858644, -1.582343, -0.5169216, 0.2282803, -0.9740448, -0.39073318, 0.8585208, 0.95246977, -0.92287767, -0.01964912, -0.056459468, -0.04060017, 0.008234703, 0.91367745, -0.74402136, -1.3628173, 0.41886342, 0.032426015, -0.6415869, 0.038007922, -0.0005557975, 1.1526939, 0.35954586, -0.04511508, 0.0011164811, -0.009003227, 0.04376381, -0.044561338, 0.007458407, -1.6257364, 0.0059963292, 0.0321413, -0.012200285, -0.048365902, -0.21228623, -0.0035057643, 1.2130976, -0.5869935, 0.9328967, -0.0064273635, -0.06224002, -0.58242285, 0.032543626, 1.330422, 0.26795265, 0.017641818, -0.04135749, 0.04207529, -0.0024379822, -0.039501265, 0.0056169843, 0.012648946, 0.046616927, -0.02969391, 0.03531037], "categories": [], "categories_nodes": [], "categories_segments": [], "categories_sizes": [], "default_left": [0, 0, 0, 0, 0, 0, 0, 0, 0, 0, 0, 0, 0, 0, 0, 0, 0, 0, 0, 0, 0, 0, 0, 0, 0, 0, 0, 0, 0, 0, 0, 0, 0, 0, 0, 0, 0, 0, 0, 0, 0, 0, 0, 0, 0, 0, 0, 0, 0, 0, 0, 0, 0, 0, 0, 0, 0, 0, 0, 0, 0, 0, 0, 0, 0], "id": 11, "left_children": [1, 3, 5, 7, 9, -1, 11, 13, -1, 15, 17, 19, 21, 23, 25, 27, 29, 31, 33, -1, -1, -1, -1, 35, 37, 39, 41, -1, 43, -1, -1, 45, 47, -1, -1, -1, -1, -1, -1, 49, -1, -1, -1, -1, 51, -1, 53, 55, 57, -1, -1, 59, -1, 61, 63, -1, -1, -1, -1, -1, -1, -1, -1, -1, -1], "loss_changes": [31.937237, 10.53643, 3.9021626, 8.174852, 8.973563, 0.0, 1.9009075, 7.3590627, 0.0, 5.699188, 11.865726, 0.31990242, 2.6863642, 6.526133, 7.7090807, 5.500742, 1.230928, 3.8878899, 1.6640694, 0.0, 0.0, 0.0, 0.0, 2.9985762, 2.69634, 4.5677643, 1.9115514, 0.0, 4.085584, 0.0, 0.0, 2.151554, 6.301214, 0.0, 0.0, 0.0, 0.0, 0.0, 0.0, 2.790388, 0.0, 0.0, 0.0, 0.0, 4.7188654, 0.0, 2.4708862, 4.0229907, 2.4080272, 0.0, 0.0, 3.73835, 0.0, 0.92155075, 4.6738214, 0.0, 0.0, 0.0, 0.0, 0.0, 0.0, 0.0, 0.0, 0.0, 0.0], "parents": [2147483647, 0, 0, 1, 1, 2, 2, 3, 3, 4, 4, 6, 6, 7, 7, 9, 9, 10, 10, 11, 11, 12, 12, 13, 13, 14, 14, 15, 15, 16, 16, 17, 17, 18, 18, 23, 23, 24, 24, 25, 25, 26, 26, 28, 28, 31, 31, 32, 32, 39, 39, 44, 44, 46, 46, 47, 47, 48, 48, 51, 51, 53, 53, 54, 54], "right_children": [2, 4, 6, 8, 10, -1, 12, 14, -1, 16, 18, 20, 22, 24, 26, 28, 30, 32, 34, -1, -1, -1, -1, 36, 38, 40, 42, -1, 44, -1, -1, 46, 48, -1, -1, -1, -1, -1, -1, 50, -1, -1, -1, -1, 52, -1, 54, 56, 58, -1, -1, 60, -1, 62, 64, -1, -1, -1, -1, -1, -1, -1, -1, -1, -1], "split_conditions": [0.84341973, -0.57337993, -1.5180967, 0.6909505, -0.5595614, 0.007004848, 0.9630963, -0.6218926, 0.03281278, 0.085984975, 1.5944006, -0.04021498, -0.82166624, -0.3768588, 0.058571227, -1.1788961, 0.802071, 0.053744473, -0.4610251, -0.01964912, -0.056459468, -0.04060017, 0.008234703, -1.1567891, -0.54204696, 1.1322815, -0.8158734, 0.032426015, -0.7957014, 0.038007922, -0.0005557975, -1.1370856, -0.4362196, -0.04511508, 0.0011164811, -0.009003227, 0.04376381, -0.044561338, 0.007458407, -1.071159, 0.0059963292, 0.0321413, -0.012200285, -0.048365902, 0.46139267, -0.0035057643, 0.85739577, -0.63807064, 0.9353692, -0.0064273635, -0.06224002, -0.26745737, 0.032543626, -1.3397446, 0.66153955, 0.017641818, -0.04135749, 0.04207529, -0.0024379822, -0.039501265, 0.0056169843, 0.012648946, 0.046616927, -0.02969391, 0.03531037], "split_indices": [25, 25, 15, 9, 5, 0, 19, 27, 0, 22, 0, 26, 15, 23, 26, 6, 10, 25, 10, 0, 0, 0, 0, 26, 9, 4, 25, 0, 19, 0, 0, 13, 10, 0, 0, 0, 0, 0, 0, 25, 0, 0, 0, 0, 17, 0, 5, 6, 19, 0, 0, 24, 0, 11, 13, 0, 0, 0, 0, 0, 0, 0, 0, 0, 0], "split_type": [0, 0, 0, 0, 0, 0, 0, 0, 0, 0, 0, 0, 0, 0, 0, 0, 0, 0, 0, 0, 0, 0, 0, 0, 0, 0, 0, 0, 0, 0, 0, 0, 0, 0, 0, 0, 0, 0, 0, 0, 0, 0, 0, 0, 0, 0, 0, 0, 0, 0, 0, 0, 0, 0, 0, 0, 0, 0, 0, 0, 0, 0, 0, 0, 0], "sum_hessian": [94.547424, 78.726845, 15.82058, 23.38308, 55.343765, 1.4518336, 14.368747, 19.954609, 3.4284701, 17.172709, 38.17106, 10.914938, 3.4538085, 7.7728486, 12.18176, 13.257351, 3.915357, 35.240078, 2.9309797, 1.736184, 9.178754, 1.4911054, 1.9627031, 4.594428, 3.1784205, 9.540523, 2.6412377, 1.6128483, 11.644503, 2.7328427, 1.1825144, 25.638237, 9.601842, 1.7347653, 1.1962144, 1.2402976, 3.3541305, 1.7345498, 1.4438708, 8.105333, 1.4351891, 1.4235444, 1.2176934, 3.2109036, 8.433599, 1.1407946, 24.497442, 3.6131434, 5.988699, 1.4282492, 6.677084, 6.819844, 1.6137555, 21.429657, 3.0677857, 1.4048195, 2.208324, 4.319779, 1.6689197, 3.4628532, 3.3569906, 1.8709823, 19.558674, 1.1939005, 1.8738854], "tree_param": {"num_deleted": "0", "num_feature": "28", "num_nodes": "65", "size_leaf_vector": "1"}}, {"base_weights": [-0.3643897, -0.0049148067, -0.8790004, -0.9353843, 0.45881677, -1.3559253, -0.4509592, -1.2748551, -0.24157268, -0.22953823, 0.74217916, -0.42568862, -1.5045458, 0.4639441, -0.8081851, -1.4626733, 0.0047045616, 0.028975943, -0.61653095, 0.5411377, -0.8278774, 1.1221106, -0.009449571, 0.010307004, -0.036777668, -1.6419767, -0.008676803, 0.033106662, -0.34692112, -1.0499501, 0.25815037, -1.5699521, -0.0106345685, 0.31975958, -1.2728635, 0.034927044, -0.016316736, 0.008745492, -1.3697616, -0.008900944, 1.248843, -0.035354115, 0.44221473, -0.05809108, -0.016184358, 0.017093057, -0.034726124, -1.2256982, 0.0038641465, 0.029823072, -0.015167029, -0.05631793, -0.020845313, -0.012168133, 0.029235158, -0.04950438, -0.014341192, 0.028875321, -0.026585346, -0.013444929, -0.05351404, 0.31338072, 1.3759826, -0.02527951, 0.7755716, -0.057935115, -0.4366612, -0.014542524, 0.030211706, 0.012160291, 0.047741223, 0.041174486, -0.00906128, 0.017007666, -1.074546, -0.044064194, -0.009164022], "categories": [], "categories_nodes": [], "categories_segments": [], "categories_sizes": [], "default_left": [0, 0, 0, 0, 0, 0, 0, 0, 0, 0, 0, 0, 0, 0, 0, 0, 0, 0, 0, 0, 0, 0, 0, 0, 0, 0, 0, 0, 0, 0, 0, 0, 0, 0, 0, 0, 0, 0, 0, 0, 0, 0, 0, 0, 0, 0, 0, 0, 0, 0, 0, 0, 0, 0, 0, 0, 0, 0, 0, 0, 0, 0, 0, 0, 0, 0, 0, 0, 0, 0, 0, 0, 0, 0, 0, 0, 0], "id": 12, "left_children": [1, 3, 5, 7, 9, 11, 13, 15, 17, 19, 21, 23, 25, 27, 29, 31, -1, -1, 33, 35, 37, 39, 41, -1, -1, 43, -1, -1, 45, 47, 49, 51, -1, 53, 55, -1, -1, 57, 59, -1, 61, -1, 63, -1, -1, -1, -1, 65, -1, -1, -1, -1, -1, -1, -1, -1, -1, -1, -1, -1, -1, 67, 69, -1, 71, -1, 73, -1, -1, -1, -1, -1, -1, -1, 75, -1, -1], "loss_changes": [17.709175, 25.187958, 7.426487, 4.2647076, 7.77073, 1.8653831, 7.6464486, 3.6112099, 3.7065775, 6.039837, 7.9605103, 2.2790985, 2.1775208, 3.298419, 4.4901876, 0.896677, 0.0, 0.0, 4.263858, 3.596334, 3.2859979, 3.5904064, 5.377673, 0.0, 0.0, 0.7303581, 0.0, 0.0, 2.6008165, 2.9161081, 2.1445699, 0.09100723, 0.0, 1.6122754, 0.056911945, 0.0, 0.0, 3.3407605, 0.35209274, 0.0, 1.6060963, 0.0, 3.7649302, 0.0, 0.0, 0.0, 0.0, 4.032154, 0.0, 0.0, 0.0, 0.0, 0.0, 0.0, 0.0, 0.0, 0.0, 0.0, 0.0, 0.0, 0.0, 1.8821156, 0.3185215, 0.0, 3.5648146, 0.0, 4.1731367, 0.0, 0.0, 0.0, 0.0, 0.0, 0.0, 0.0, 0.40956688, 0.0, 0.0], "parents": [2147483647, 0, 0, 1, 1, 2, 2, 3, 3, 4, 4, 5, 5, 6, 6, 7, 7, 8, 8, 9, 9, 10, 10, 11, 11, 12, 12, 13, 13, 14, 14, 15, 15, 18, 18, 19, 19, 20, 20, 21, 21, 22, 22, 25, 25, 28, 28, 29, 29, 30, 30, 31, 31, 33, 33, 34, 34, 37, 37, 38, 38, 40, 40, 42, 42, 47, 47, 61, 61, 62, 62, 64, 64, 66, 66, 74, 74], "right_children": [2, 4, 6, 8, 10, 12, 14, 16, 18, 20, 22, 24, 26, 28, 30, 32, -1, -1, 34, 36, 38, 40, 42, -1, -1, 44, -1, -1, 46, 48, 50, 52, -1, 54, 56, -1, -1, 58, 60, -1, 62, -1, 64, -1, -1, -1, -1, 66, -1, -1, -1, -1, -1, -1, -1, -1, -1, -1, -1, -1, -1, 68, 70, -1, 72, -1, 74, -1, -1, -1, -1, -1, -1, -1, 76, -1, -1], "split_conditions": [-0.08386718, -0.6700366, 0.086225376, -0.26181468, -0.6877853, -0.62154233, -0.7987876, 1.1278331, -1.0397838, -0.27149418, -0.14983608, 0.041470964, 1.7223017, 0.4556186, 0.79435533, 0.96412057, 0.0047045616, 0.028975943, -0.018422382, 0.25750712, -0.22688077, -1.4241718, -1.0288898, 0.010307004, -0.036777668, 1.5903698, -0.008676803, 0.033106662, -0.50185114, 2.0725915, 0.07617035, -0.32179734, -0.0106345685, -0.5562817, 0.16768877, 0.034927044, -0.016316736, 0.25034088, -0.5208551, -0.008900944, -0.3924629, -0.035354115, -0.7331773, -0.05809108, -0.016184358, 0.017093057, -0.034726124, 0.072939225, 0.0038641465, 0.029823072, -0.015167029, -0.05631793, -0.020845313, -0.012168133, 0.029235158, -0.04950438, -0.014341192, 0.028875321, -0.026585346, -0.013444929, -0.05351404, -0.23659952, -1.0156435, -0.02527951, -0.3260954, -0.057935115, 0.7114427, -0.014542524, 0.030211706, 0.012160291, 0.047741223, 0.041174486, -0.00906128, 0.017007666, -0.31638387, -0.044064194, -0.009164022], "split_indices": [27, 26, 24, 22, 3, 9, 11, 14, 14, 0, 25, 1, 9, 25, 4, 0, 0, 0, 22, 4, 10, 4, 11, 0, 0, 1, 0, 0, 6, 23, 0, 23, 0, 2, 17, 0, 0, 15, 17, 0, 23, 0, 5, 0, 0, 0, 0, 9, 0, 0, 0, 0, 0, 0, 0, 0, 0, 0, 0, 0, 0, 13, 22, 0, 22, 0, 9, 0, 0, 0, 0, 0, 0, 0, 7, 0, 0], "split_type": [0, 0, 0, 0, 0, 0, 0, 0, 0, 0, 0, 0, 0, 0, 0, 0, 0, 0, 0, 0, 0, 0, 0, 0, 0, 0, 0, 0, 0, 0, 0, 0, 0, 0, 0, 0, 0, 0, 0, 0, 0, 0, 0, 0, 0, 0, 0, 0, 0, 0, 0, 0, 0, 0, 0, 0, 0, 0, 0, 0, 0, 0, 0, 0, 0, 0, 0, 0, 0, 0, 0, 0, 0, 0, 0, 0, 0], "sum_hessian": [94.754005, 56.38001, 38.374, 18.414516, 37.965492, 17.125246, 21.248753, 11.802349, 6.6121664, 11.126504, 26.83899, 2.891458, 14.2337885, 5.882961, 15.365791, 10.391099, 1.4112501, 1.3359499, 5.2762165, 4.9047117, 6.221792, 17.50015, 9.338838, 1.6479553, 1.2435027, 12.530131, 1.7036576, 3.423537, 2.4594235, 12.53839, 2.8274014, 9.159153, 1.2319465, 2.3857028, 2.890514, 3.2770286, 1.6276835, 2.832506, 3.389286, 1.370526, 16.129625, 2.4014964, 6.937341, 11.059588, 1.4705431, 1.2164301, 1.2429934, 10.851312, 1.6870784, 1.3594562, 1.4679452, 7.4298863, 1.7292665, 1.2251778, 1.1605251, 1.6998111, 1.1907028, 1.3366303, 1.4958756, 1.1960378, 2.1932483, 2.3444676, 13.785157, 1.2305311, 5.70681, 5.8499436, 5.001368, 1.1521404, 1.1923271, 1.1209496, 12.664208, 3.841583, 1.8652272, 2.0936406, 2.9077272, 1.721856, 1.1858714], "tree_param": {"num_deleted": "0", "num_feature": "28", "num_nodes": "77", "size_leaf_vector": "1"}}, {"base_weights": [0.029360453, 0.28547665, -1.1802233, -0.23795518, 0.5178362, 0.007335882, -1.3273633, -0.47190273, 0.96765107, -0.056348417, 0.76749164, -0.005369976, -1.4396727, 0.047224652, -1.1304677, 0.036500134, 0.010272165, -0.8300468, 0.3212421, 0.92983687, -0.89677763, -1.5331153, -0.008733895, 0.03766454, -0.241884, -1.3606966, 0.003944821, -1.3590634, 0.026703676, -0.6024118, 0.7261825, 0.43343535, 1.1685956, 0.0013209292, -0.043959934, -0.05506395, -0.022403244, -0.6718201, 0.5912124, -0.052766267, -0.017685972, -0.0099815605, -0.05440871, -0.037354056, 0.014429112, 1.2590795, -0.033387445, 1.0134119, -0.48723468, 0.4791522, 1.3434908, -1.1130935, 0.14971015, -0.011597852, 0.035927124, 0.012116646, 0.0454019, 1.188797, -0.0012801464, -0.988064, 0.027483374, 0.036914475, -0.2849374, 0.047938034, 0.0039491737, 0.004987263, -0.051271133, -0.017558265, 0.028391311, 0.04256494, 0.012650289, 0.0007679255, -0.04494244, -0.033018537, 0.024736654], "categories": [], "categories_nodes": [], "categories_segments": [], "categories_sizes": [], "default_left": [0, 0, 0, 0, 0, 0, 0, 0, 0, 0, 0, 0, 0, 0, 0, 0, 0, 0, 0, 0, 0, 0, 0, 0, 0, 0, 0, 0, 0, 0, 0, 0, 0, 0, 0, 0, 0, 0, 0, 0, 0, 0, 0, 0, 0, 0, 0, 0, 0, 0, 0, 0, 0, 0, 0, 0, 0, 0, 0, 0, 0, 0, 0, 0, 0, 0, 0, 0, 0, 0, 0, 0, 0, 0, 0], "id": 13, "left_children": [1, 3, 5, 7, 9, -1, 11, 13, 15, 17, 19, -1, 21, 23, 25, -1, -1, 27, 29, 31, 33, 35, -1, -1, 37, 39, -1, 41, -1, 43, 45, 47, 49, -1, -1, -1, -1, 51, 53, -1, -1, -1, -1, -1, -1, 55, -1, 57, 59, 61, 63, 65, 67, -1, -1, -1, -1, 69, -1, 71, -1, -1, 73, -1, -1, -1, -1, -1, -1, -1, -1, -1, -1, -1, -1], "loss_changes": [29.706678, 9.736814, 3.7455196, 7.5039406, 7.9355993, 0.0, 1.773323, 7.4371963, 0.03112936, 5.41302, 11.22011, 0.0, 1.1211395, 4.3542767, 2.9097633, 0.0, 0.0, 6.315056, 5.1350074, 3.7027931, 1.603591, 0.18016815, 0.0, 0.0, 4.377773, 0.6644125, 0.0, 0.942502, 0.0, 2.8320148, 9.718044, 7.501544, 2.1768227, 0.0, 0.0, 0.0, 0.0, 2.9937499, 2.3468854, 0.0, 0.0, 0.0, 0.0, 0.0, 0.0, 0.19315434, 0.0, 1.5908852, 4.590534, 3.3339663, 1.9287338, 3.0166698, 2.1613781, 0.0, 0.0, 0.0, 0.0, 0.029790878, 0.0, 1.7116313, 0.0, 0.0, 3.3675447, 0.0, 0.0, 0.0, 0.0, 0.0, 0.0, 0.0, 0.0, 0.0, 0.0, 0.0, 0.0], "parents": [2147483647, 0, 0, 1, 1, 2, 2, 3, 3, 4, 4, 6, 6, 7, 7, 8, 8, 9, 9, 10, 10, 12, 12, 13, 13, 14, 14, 17, 17, 18, 18, 19, 19, 20, 20, 21, 21, 24, 24, 25, 25, 27, 27, 29, 29, 30, 30, 31, 31, 32, 32, 37, 37, 38, 38, 45, 45, 47, 47, 48, 48, 49, 49, 50, 50, 51, 51, 52, 52, 57, 57, 59, 59, 62, 62], "right_children": [2, 4, 6, 8, 10, -1, 12, 14, 16, 18, 20, -1, 22, 24, 26, -1, -1, 28, 30, 32, 34, 36, -1, -1, 38, 40, -1, 42, -1, 44, 46, 48, 50, -1, -1, -1, -1, 52, 54, -1, -1, -1, -1, -1, -1, 56, -1, 58, 60, 62, 64, 66, 68, -1, -1, -1, -1, 70, -1, 72, -1, -1, 74, -1, -1, -1, -1, -1, -1, -1, -1, -1, -1, -1, -1], "split_conditions": [0.84341973, -0.5564018, -1.5180967, 0.6909505, -0.5595614, 0.007335882, -1.3841065, -0.059899513, 0.64401734, -0.7957014, 1.5944006, -0.005369976, 1.2555122, -0.40463072, 0.79021984, 0.036500134, 0.010272165, -0.21034093, -0.59943485, -0.4362196, -0.5187308, 0.85282415, -0.008733895, 0.03766454, 0.41579723, 0.86795324, 0.003944821, -0.6363623, 0.026703676, 0.045187335, 0.93263054, -0.08781187, -0.6016692, 0.0013209292, -0.043959934, -0.05506395, -0.022403244, 0.7496266, -0.85496444, -0.052766267, -0.017685972, -0.0099815605, -0.05440871, -0.037354056, 0.014429112, -1.0618845, -0.033387445, 0.6757404, 0.51081496, -0.25249565, 1.1973203, -0.8219395, 0.27797312, -0.011597852, 0.035927124, 0.012116646, 0.0454019, 0.58977365, -0.0012801464, -0.5167639, 0.027483374, 0.036914475, 0.0766279, 0.047938034, 0.0039491737, 0.004987263, -0.051271133, -0.017558265, 0.028391311, 0.04256494, 0.012650289, 0.0007679255, -0.04494244, -0.033018537, 0.024736654], "split_indices": [25, 25, 15, 9, 5, 0, 6, 3, 7, 19, 0, 0, 15, 23, 4, 0, 0, 9, 26, 10, 2, 17, 0, 0, 15, 7, 0, 18, 0, 18, 18, 25, 13, 0, 0, 0, 0, 7, 25, 0, 0, 0, 0, 0, 0, 4, 0, 3, 4, 2, 1, 22, 18, 0, 0, 0, 0, 17, 0, 6, 0, 0, 6, 0, 0, 0, 0, 0, 0, 0, 0, 0, 0, 0, 0], "split_type": [0, 0, 0, 0, 0, 0, 0, 0, 0, 0, 0, 0, 0, 0, 0, 0, 0, 0, 0, 0, 0, 0, 0, 0, 0, 0, 0, 0, 0, 0, 0, 0, 0, 0, 0, 0, 0, 0, 0, 0, 0, 0, 0, 0, 0, 0, 0, 0, 0, 0, 0, 0, 0, 0, 0, 0, 0, 0, 0, 0, 0, 0, 0, 0, 0, 0, 0, 0, 0, 0, 0, 0, 0, 0, 0], "sum_hessian": [93.80412, 78.04329, 15.760829, 23.98613, 54.057163, 1.4515007, 14.309328, 20.597725, 3.388406, 16.616053, 37.44111, 1.4707655, 12.838563, 12.037336, 8.560388, 2.2864764, 1.1019298, 5.0566006, 11.559452, 34.515503, 2.925605, 11.615111, 1.2234515, 1.9239191, 10.113418, 7.152223, 1.408164, 3.9442213, 1.1123792, 3.3745577, 8.184895, 12.123985, 22.39152, 1.1903905, 1.7352145, 9.399592, 2.2155192, 6.798501, 3.3149166, 4.9261413, 2.2260823, 1.2381299, 2.7060914, 2.1939518, 1.1806059, 6.4628735, 1.7220216, 7.3764524, 4.7475324, 5.2875333, 17.103987, 4.1919513, 2.60655, 1.2286229, 2.0862937, 1.1336424, 5.329231, 6.210628, 1.165824, 3.6143146, 1.133218, 2.655042, 2.6324914, 15.715741, 1.3882447, 1.2188826, 2.9730687, 1.4546056, 1.1519443, 5.079484, 1.1311439, 1.1952653, 2.4190493, 1.5814724, 1.0510191], "tree_param": {"num_deleted": "0", "num_feature": "28", "num_nodes": "75", "size_leaf_vector": "1"}}, {"base_weights": [-0.35295793, -0.0049508708, -0.84984404, -0.90099055, 0.44545767, -1.3167437, -0.43164453, -1.228091, -0.2316372, 0.70841926, -0.27675933, -0.4222707, -1.4587237, 0.4697208, -0.78310436, -1.4340334, 0.0022883422, 0.1787486, -0.043725334, -0.098833844, 1.0108509, -0.6628486, 0.035125867, -0.031549953, 0.014805338, -1.5933067, -0.008212277, -0.0194222, 0.84507966, -1.0183738, 0.2595366, -0.056222606, -0.3856715, 0.029671704, -0.46186334, -0.60897094, 0.8427408, 1.2270973, 0.39864135, -0.97834367, 0.020530406, -0.056419406, -0.015509703, 0.041521005, -0.01095171, -1.1940156, 0.0045145988, 0.029140264, -0.01432653, 0.007661643, -0.02789438, -0.030229006, 0.012566048, 0.013580709, -0.91822034, 0.033069845, 0.008636927, 1.318819, 0.007437634, -0.027051823, 0.88054514, -1.275606, 0.012995718, -0.056469474, -0.42230755, -1.2074783, 0.00069304236, 0.012889459, 0.04576692, -0.00418541, 0.039115064, 0.000769727, -0.05191129, 0.0168371, -1.0465635, -0.01356218, -0.04687521, -0.0429693, -0.0088424655], "categories": [], "categories_nodes": [], "categories_segments": [], "categories_sizes": [], "default_left": [0, 0, 0, 0, 0, 0, 0, 0, 0, 0, 0, 0, 0, 0, 0, 0, 0, 0, 0, 0, 0, 0, 0, 0, 0, 0, 0, 0, 0, 0, 0, 0, 0, 0, 0, 0, 0, 0, 0, 0, 0, 0, 0, 0, 0, 0, 0, 0, 0, 0, 0, 0, 0, 0, 0, 0, 0, 0, 0, 0, 0, 0, 0, 0, 0, 0, 0, 0, 0, 0, 0, 0, 0, 0, 0, 0, 0, 0, 0], "id": 14, "left_children": [1, 3, 5, 7, 9, 11, 13, 15, 17, 19, 21, 23, 25, 27, 29, 31, -1, 33, -1, 35, 37, 39, -1, -1, -1, 41, -1, -1, 43, 45, 47, -1, 49, -1, 51, 53, 55, 57, 59, 61, -1, -1, -1, -1, -1, 63, -1, -1, -1, -1, -1, -1, -1, -1, 65, -1, -1, 67, -1, -1, 69, 71, -1, -1, 73, 75, -1, -1, -1, -1, -1, -1, -1, -1, 77, -1, -1, -1, -1], "loss_changes": [16.451382, 23.394243, 7.0840206, 3.9606276, 7.523558, 1.6737556, 7.3884735, 3.5145168, 3.6020288, 7.0738325, 6.3582683, 2.1814737, 2.0797844, 3.1951954, 4.267479, 2.2853127, 0.0, 3.3211925, 0.0, 4.6902223, 2.273674, 4.295461, 0.0, 0.0, 0.0, 0.7192764, 0.0, 0.0, 2.9719543, 2.9012432, 1.9864266, 0.0, 1.1501026, 0.0, 1.8418664, 2.3294082, 0.045878887, 1.081564, 4.7553344, 3.6405883, 0.0, 0.0, 0.0, 0.0, 0.0, 3.8513775, 0.0, 0.0, 0.0, 0.0, 0.0, 0.0, 0.0, 0.0, 1.404079, 0.0, 0.0, 0.15029335, 0.0, 0.0, 1.7489967, 2.4446049, 0.0, 0.0, 3.9937654, 0.048222065, 0.0, 0.0, 0.0, 0.0, 0.0, 0.0, 0.0, 0.0, 0.39753008, 0.0, 0.0, 0.0, 0.0], "parents": [2147483647, 0, 0, 1, 1, 2, 2, 3, 3, 4, 4, 5, 5, 6, 6, 7, 7, 8, 8, 9, 9, 10, 10, 11, 11, 12, 12, 13, 13, 14, 14, 15, 15, 17, 17, 19, 19, 20, 20, 21, 21, 25, 25, 28, 28, 29, 29, 30, 30, 32, 32, 34, 34, 35, 35, 36, 36, 37, 37, 38, 38, 39, 39, 45, 45, 54, 54, 57, 57, 60, 60, 61, 61, 64, 64, 65, 65, 74, 74], "right_children": [2, 4, 6, 8, 10, 12, 14, 16, 18, 20, 22, 24, 26, 28, 30, 32, -1, 34, -1, 36, 38, 40, -1, -1, -1, 42, -1, -1, 44, 46, 48, -1, 50, -1, 52, 54, 56, 58, 60, 62, -1, -1, -1, -1, -1, 64, -1, -1, -1, -1, -1, -1, -1, -1, 66, -1, -1, 68, -1, -1, 70, 72, -1, -1, 74, 76, -1, -1, -1, -1, -1, -1, -1, -1, 78, -1, -1, -1, -1], "split_conditions": [-0.08386718, -0.6700366, 0.086225376, -0.26181468, -0.23722441, -0.62154233, -0.7987876, -0.17421518, 0.35736164, -0.6877853, 0.72494066, -0.45305368, 1.7223017, -0.85279226, 0.79435533, -0.31928742, 0.0022883422, -0.018422382, -0.043725334, 0.034204204, -0.14983608, 0.43727428, 0.035125867, -0.031549953, 0.014805338, 1.5903698, -0.008212277, -0.0194222, 1.0578464, 2.0725915, 0.07617035, -0.056222606, -0.8443375, 0.029671704, -0.800892, -0.73944044, -0.9826605, 1.281787, -0.6897832, 1.3850012, 0.020530406, -0.056419406, -0.015509703, 0.041521005, -0.01095171, 0.072939225, 0.0045145988, 0.029140264, -0.01432653, 0.007661643, -0.02789438, -0.030229006, 0.012566048, 0.013580709, 0.46397346, 0.033069845, 0.008636927, -1.2712879, 0.007437634, -0.027051823, -0.78114986, -0.7987707, 0.012995718, -0.056469474, 0.7114427, -0.20777315, 0.00069304236, 0.012889459, 0.04576692, -0.00418541, 0.039115064, 0.000769727, -0.05191129, 0.0168371, -0.31638387, -0.01356218, -0.04687521, -0.0429693, -0.0088424655], "split_indices": [27, 26, 24, 22, 27, 9, 11, 9, 14, 3, 3, 14, 9, 18, 4, 23, 0, 22, 0, 9, 25, 5, 0, 0, 0, 1, 0, 0, 1, 23, 0, 0, 5, 0, 27, 17, 7, 0, 5, 17, 0, 0, 0, 0, 0, 9, 0, 0, 0, 0, 0, 0, 0, 0, 6, 0, 0, 6, 0, 0, 0, 17, 0, 0, 9, 6, 0, 0, 0, 0, 0, 0, 0, 0, 7, 0, 0, 0, 0], "split_type": [0, 0, 0, 0, 0, 0, 0, 0, 0, 0, 0, 0, 0, 0, 0, 0, 0, 0, 0, 0, 0, 0, 0, 0, 0, 0, 0, 0, 0, 0, 0, 0, 0, 0, 0, 0, 0, 0, 0, 0, 0, 0, 0, 0, 0, 0, 0, 0, 0, 0, 0, 0, 0, 0, 0, 0, 0, 0, 0, 0, 0, 0, 0, 0, 0, 0, 0, 0, 0, 0, 0, 0, 0, 0, 0, 0, 0, 0, 0], "sum_hessian": [94.16308, 55.971767, 38.19131, 18.38881, 37.58296, 17.02978, 21.16153, 11.791689, 6.597121, 27.565407, 10.01755, 2.877254, 14.152526, 5.842129, 15.319401, 10.084277, 1.7074121, 5.38546, 1.2116605, 7.6961036, 19.869303, 8.153438, 1.8641129, 1.7350582, 1.1421957, 12.45561, 1.6969153, 1.3907152, 4.451414, 12.518016, 2.8013854, 7.635362, 2.4489152, 2.367172, 3.018288, 5.2207747, 2.4753292, 13.940742, 5.928562, 6.728351, 1.4250865, 10.988067, 1.4675436, 3.2730143, 1.1783998, 10.833947, 1.6840684, 1.3391147, 1.4622707, 1.2432612, 1.2056539, 1.9191079, 1.0991801, 1.1438609, 4.0769134, 1.4136958, 1.0616332, 12.486388, 1.4543532, 1.4936149, 4.434947, 5.583048, 1.1453029, 5.848722, 4.985225, 2.8982258, 1.1786877, 1.1329868, 11.353401, 1.1288334, 3.3061137, 1.1589041, 4.424144, 2.0823927, 2.9028327, 1.1824669, 1.7157589, 1.719237, 1.1835958], "tree_param": {"num_deleted": "0", "num_feature": "28", "num_nodes": "79", "size_leaf_vector": "1"}}, {"base_weights": [0.036428932, 0.28489092, -1.133404, -0.22043619, 0.5101102, 0.007804961, -1.2792873, 0.16439947, -0.9474748, -0.050313115, 0.75478417, -1.4755054, -0.46887147, 0.040772676, -0.12854037, -1.1612858, 0.0034627253, -0.8117725, 0.3232939, 0.9148737, -0.8727893, -0.017845051, -0.052792683, -0.038231548, 0.0086356895, 0.4062015, -0.8200744, -1.3727081, -0.009586653, -1.3298591, 0.02647117, -0.57658726, 0.71836394, 1.113264, 0.3402181, 0.0014885075, -0.042900622, -0.60529155, 1.0991668, -0.0489079, 0.023018781, -0.011808626, -0.052299578, -0.009446133, -0.053447526, -0.03615552, 0.0143651385, 1.2404943, -0.032012206, -0.0042404216, 1.1752981, -0.564642, 0.89737636, 0.019682668, -0.042968057, 0.040413234, 0.011551559, 0.011985244, 0.04471812, 1.292452, 0.26029468, 0.017065778, -0.039650187, 0.040853173, -0.002713904, 0.013176834, 0.045236323, -0.029044494, 0.034670424], "categories": [], "categories_nodes": [], "categories_segments": [], "categories_sizes": [], "default_left": [0, 0, 0, 0, 0, 0, 0, 0, 0, 0, 0, 0, 0, 0, 0, 0, 0, 0, 0, 0, 0, 0, 0, 0, 0, 0, 0, 0, 0, 0, 0, 0, 0, 0, 0, 0, 0, 0, 0, 0, 0, 0, 0, 0, 0, 0, 0, 0, 0, 0, 0, 0, 0, 0, 0, 0, 0, 0, 0, 0, 0, 0, 0, 0, 0, 0, 0, 0, 0], "id": 15, "left_children": [1, 3, 5, 7, 9, -1, 11, 13, 15, 17, 19, 21, 23, -1, 25, 27, -1, 29, 31, 33, 35, -1, -1, -1, -1, 37, 39, 41, -1, 43, -1, 45, 47, 49, 51, -1, -1, 53, 55, -1, -1, -1, -1, -1, -1, -1, -1, 57, -1, -1, 59, 61, 63, -1, -1, -1, -1, -1, -1, 65, 67, -1, -1, -1, -1, -1, -1, -1, -1], "loss_changes": [27.677183, 9.037796, 3.6287746, 7.115658, 7.517684, 0.0, 1.7306252, 5.4664683, 2.0892687, 5.245238, 10.70833, 0.35315704, 2.4863632, 0.0, 5.625952, 0.9646673, 0.0, 6.0896006, 4.8457603, 3.6246243, 1.5463383, 0.0, 0.0, 0.0, 0.0, 6.7916403, 7.4388914, 0.5757446, 0.0, 0.96215725, 0.0, 2.698176, 9.174177, 2.1243687, 5.776045, 0.0, 0.0, 4.1937466, 0.05212927, 0.0, 0.0, 0.0, 0.0, 0.0, 0.0, 0.0, 0.0, 0.17487621, 0.0, 0.0, 2.2940636, 3.701507, 2.302022, 0.0, 0.0, 0.0, 0.0, 0.0, 0.0, 0.710392, 4.469193, 0.0, 0.0, 0.0, 0.0, 0.0, 0.0, 0.0, 0.0], "parents": [2147483647, 0, 0, 1, 1, 2, 2, 3, 3, 4, 4, 6, 6, 7, 7, 8, 8, 9, 9, 10, 10, 11, 11, 12, 12, 14, 14, 15, 15, 17, 17, 18, 18, 19, 19, 20, 20, 25, 25, 26, 26, 27, 27, 29, 29, 31, 31, 32, 32, 33, 33, 34, 34, 37, 37, 38, 38, 47, 47, 50, 50, 51, 51, 52, 52, 59, 59, 60, 60], "right_children": [2, 4, 6, 8, 10, -1, 12, 14, 16, 18, 20, 22, 24, -1, 26, 28, -1, 30, 32, 34, 36, -1, -1, -1, -1, 38, 40, 42, -1, 44, -1, 46, 48, 50, 52, -1, -1, 54, 56, -1, -1, -1, -1, -1, -1, -1, -1, 58, -1, -1, 60, 62, 64, -1, -1, -1, -1, -1, -1, 66, 68, -1, -1, -1, -1, -1, -1, -1, -1], "split_conditions": [0.84341973, -0.5564018, -1.5180967, 0.3947001, -0.5595614, 0.007804961, 0.9630963, -0.40463072, 0.79021984, -0.7957014, 1.5944006, -0.04021498, -0.82166624, 0.040772676, -0.40797752, 0.81581753, 0.0034627253, -0.21034093, -0.59943485, 0.053744473, -0.5187308, -0.017845051, -0.052792683, -0.038231548, 0.0086356895, -0.8311981, 0.058571227, -0.7988384, -0.009586653, -0.6363623, 0.02647117, 0.045187335, 0.93263054, -1.1370856, -0.4362196, 0.0014885075, -0.042900622, -0.3585954, -0.102160454, -0.0489079, 0.023018781, -0.011808626, -0.052299578, -0.009446133, -0.053447526, -0.03615552, 0.0143651385, -1.0618845, -0.032012206, -0.0042404216, 0.85739577, -0.63807064, 0.9353692, 0.019682668, -0.042968057, 0.040413234, 0.011551559, 0.011985244, 0.04471812, -1.3397446, 0.66153955, 0.017065778, -0.039650187, 0.040853173, -0.002713904, 0.013176834, 0.045236323, -0.029044494, 0.034670424], "split_indices": [25, 25, 15, 3, 5, 0, 19, 23, 4, 19, 0, 26, 15, 0, 27, 18, 0, 9, 26, 25, 2, 0, 0, 0, 0, 26, 26, 17, 0, 18, 0, 18, 18, 13, 10, 0, 0, 0, 21, 0, 0, 0, 0, 0, 0, 0, 0, 4, 0, 0, 5, 6, 19, 0, 0, 0, 0, 0, 0, 11, 13, 0, 0, 0, 0, 0, 0, 0, 0], "split_type": [0, 0, 0, 0, 0, 0, 0, 0, 0, 0, 0, 0, 0, 0, 0, 0, 0, 0, 0, 0, 0, 0, 0, 0, 0, 0, 0, 0, 0, 0, 0, 0, 0, 0, 0, 0, 0, 0, 0, 0, 0, 0, 0, 0, 0, 0, 0, 0, 0, 0, 0, 0, 0, 0, 0, 0, 0, 0, 0, 0, 0, 0, 0, 0, 0, 0, 0, 0, 0], "sum_hessian": [93.11125, 77.42364, 15.687615, 23.875391, 53.54825, 1.4538414, 14.233773, 16.117802, 7.7575884, 16.51505, 37.0332, 10.798551, 3.4352229, 2.8048003, 13.313002, 6.359681, 1.3979074, 5.0499015, 11.46515, 34.115463, 2.9177363, 1.7291024, 9.069448, 1.4805218, 1.954701, 7.740286, 5.5727158, 4.66068, 1.6990011, 3.9480915, 1.1018099, 3.3576708, 8.107479, 24.663523, 9.451941, 1.1851143, 1.732622, 3.1983316, 4.5419545, 3.921473, 1.6512426, 1.2063046, 3.4543753, 1.2401251, 2.7079663, 2.1811988, 1.1764718, 6.3831873, 1.7242914, 1.1245987, 23.538923, 3.5969062, 5.855034, 1.2131436, 1.985188, 3.4169753, 1.124979, 1.1259049, 5.2572823, 20.501476, 3.0374484, 1.3873025, 2.2096038, 4.1958804, 1.6591532, 1.8560394, 18.645435, 1.1913171, 1.8461314], "tree_param": {"num_deleted": "0", "num_feature": "28", "num_nodes": "69", "size_leaf_vector": "1"}}, {"base_weights": [-0.34380683, -0.009916433, -0.8187076, -0.8754523, 0.42986327, -1.2798159, -0.4076945, 0.012299458, -1.0133352, 0.68740845, -0.2702428, -0.4200351, -1.4155109, 0.4782694, -0.75375193, -0.10702499, -1.3170016, -0.09805482, 0.9853059, -0.647985, 0.034601558, -0.03095613, 0.01436007, -1.5469972, -0.007872711, -0.01889104, 0.85419816, -0.98358756, 0.26718616, 0.026619747, -0.8010896, -0.63626885, -1.6373657, -0.59973574, 0.82952243, 1.1994772, 0.38580087, -0.9618403, 0.020666467, -0.054789737, -0.015066477, 0.039665446, -0.0013584283, -1.159022, 0.005166582, 0.02863876, -0.013364822, -0.03951394, 0.0006376749, -1.21757, 0.029990716, -0.059934035, -0.02067196, -0.9003748, 0.013067992, 0.0082647605, 0.032697592, 1.2904972, 0.0073960046, -0.0267338, 0.86509734, -1.2535645, 0.012498453, -0.05503774, -0.40034103, -0.04766915, -0.010863506, -0.039065443, 5.8672562e-05, 0.01294671, 0.045122877, -0.0044626086, 0.0386657, -0.051360518, 0.0015559625, 0.016840272, -1.0136561, -0.008296086, -0.041745223], "categories": [], "categories_nodes": [], "categories_segments": [], "categories_sizes": [], "default_left": [0, 0, 0, 0, 0, 0, 0, 0, 0, 0, 0, 0, 0, 0, 0, 0, 0, 0, 0, 0, 0, 0, 0, 0, 0, 0, 0, 0, 0, 0, 0, 0, 0, 0, 0, 0, 0, 0, 0, 0, 0, 0, 0, 0, 0, 0, 0, 0, 0, 0, 0, 0, 0, 0, 0, 0, 0, 0, 0, 0, 0, 0, 0, 0, 0, 0, 0, 0, 0, 0, 0, 0, 0, 0, 0, 0, 0, 0, 0], "id": 16, "left_children": [1, 3, 5, 7, 9, 11, 13, -1, 15, 17, 19, 21, 23, 25, 27, 29, 31, 33, 35, 37, -1, -1, -1, 39, -1, -1, 41, 43, 45, -1, 47, 49, 51, 53, 55, 57, 59, 61, -1, -1, -1, -1, -1, 63, -1, -1, -1, -1, -1, 65, -1, -1, -1, 67, -1, -1, -1, 69, -1, -1, 71, 73, -1, -1, 75, -1, -1, -1, -1, -1, -1, -1, -1, -1, -1, -1, 77, -1, -1], "loss_changes": [14.970164, 21.874245, 6.8665295, 3.6953783, 7.059175, 1.4943619, 7.129823, 0.0, 4.7285843, 6.68349, 6.093784, 2.07172, 1.9671745, 3.1607585, 4.079488, 4.1150174, 1.8291492, 4.5228424, 2.1694164, 4.2287874, 0.0, 0.0, 0.0, 0.6709194, 0.0, 0.0, 1.6740835, 2.874298, 1.8376602, 0.0, 1.1667557, 6.3173504, 0.24396324, 2.1999133, 0.061092854, 1.0154724, 4.605092, 3.476171, 0.0, 0.0, 0.0, 0.0, 0.0, 3.7472515, 0.0, 0.0, 0.0, 0.0, 0.0, 0.41837215, 0.0, 0.0, 0.0, 1.2410083, 0.0, 0.0, 0.0, 0.22531891, 0.0, 0.0, 1.7389231, 2.521284, 0.0, 0.0, 3.8252573, 0.0, 0.0, 0.0, 0.0, 0.0, 0.0, 0.0, 0.0, 0.0, 0.0, 0.0, 0.3983004, 0.0, 0.0], "parents": [2147483647, 0, 0, 1, 1, 2, 2, 3, 3, 4, 4, 5, 5, 6, 6, 8, 8, 9, 9, 10, 10, 11, 11, 12, 12, 13, 13, 14, 14, 15, 15, 16, 16, 17, 17, 18, 18, 19, 19, 23, 23, 26, 26, 27, 27, 28, 28, 30, 30, 31, 31, 32, 32, 33, 33, 34, 34, 35, 35, 36, 36, 37, 37, 43, 43, 49, 49, 53, 53, 57, 57, 60, 60, 61, 61, 64, 64, 76, 76], "right_children": [2, 4, 6, 8, 10, 12, 14, -1, 16, 18, 20, 22, 24, 26, 28, 30, 32, 34, 36, 38, -1, -1, -1, 40, -1, -1, 42, 44, 46, -1, 48, 50, 52, 54, 56, 58, 60, 62, -1, -1, -1, -1, -1, 64, -1, -1, -1, -1, -1, 66, -1, -1, -1, 68, -1, -1, -1, 70, -1, -1, 72, 74, -1, -1, 76, -1, -1, -1, -1, -1, -1, -1, -1, -1, -1, -1, 78, -1, -1], "split_conditions": [-0.08386718, -0.6700366, 0.086225376, -1.0596371, -0.23722441, -0.62154233, -0.7987876, 0.012299458, -0.7868063, -0.6877853, 0.72494066, -0.45305368, 1.7223017, -0.3158088, 0.79435533, 0.008400013, -0.042285405, 0.034204204, -0.14983608, 0.43727428, 0.034601558, -0.03095613, 0.01436007, 1.5903698, -0.007872711, -0.01889104, 1.0174472, 2.0725915, 0.07617035, 0.026619747, 1.0133648, 0.013888615, 1.3484621, -0.23997828, -0.09711004, 1.281787, -0.6897832, 1.2812296, 0.020666467, -0.054789737, -0.015066477, 0.039665446, -0.0013584283, 0.072939225, 0.005166582, 0.02863876, -0.013364822, -0.03951394, 0.0006376749, -0.3300152, 0.029990716, -0.059934035, -0.02067196, 0.39750376, 0.013067992, 0.0082647605, 0.032697592, -0.40518445, 0.0073960046, -0.0267338, -0.78114986, -0.0062381006, 0.012498453, -0.05503774, 0.7114427, -0.04766915, -0.010863506, -0.039065443, 5.8672562e-05, 0.01294671, 0.045122877, -0.0044626086, 0.0386657, -0.051360518, 0.0015559625, 0.016840272, -0.42114082, -0.008296086, -0.041745223], "split_indices": [27, 26, 24, 18, 27, 9, 11, 0, 14, 3, 3, 14, 9, 21, 4, 2, 10, 9, 25, 5, 0, 0, 0, 1, 0, 0, 5, 23, 0, 0, 2, 3, 10, 26, 14, 0, 5, 7, 0, 0, 0, 0, 0, 9, 0, 0, 0, 0, 0, 23, 0, 0, 0, 6, 0, 0, 0, 23, 0, 0, 0, 22, 0, 0, 9, 0, 0, 0, 0, 0, 0, 0, 0, 0, 0, 0, 10, 0, 0], "split_type": [0, 0, 0, 0, 0, 0, 0, 0, 0, 0, 0, 0, 0, 0, 0, 0, 0, 0, 0, 0, 0, 0, 0, 0, 0, 0, 0, 0, 0, 0, 0, 0, 0, 0, 0, 0, 0, 0, 0, 0, 0, 0, 0, 0, 0, 0, 0, 0, 0, 0, 0, 0, 0, 0, 0, 0, 0, 0, 0, 0, 0, 0, 0, 0, 0, 0, 0, 0, 0, 0, 0, 0, 0, 0, 0, 0, 0, 0, 0], "sum_hessian": [93.46158, 55.4776, 37.98398, 18.357439, 37.120163, 16.904882, 21.079096, 1.6639262, 16.693512, 27.15054, 9.969623, 2.8625884, 14.0422945, 5.813508, 15.265589, 4.5289717, 12.16454, 7.6501927, 19.500345, 8.12764, 1.8419836, 1.7342951, 1.1282933, 12.353241, 1.6890533, 1.4037731, 4.4097347, 12.490326, 2.7752628, 1.8996719, 2.6292996, 4.848398, 7.3161426, 5.1942935, 2.4558992, 13.630215, 5.870131, 6.7085505, 1.4190892, 10.890469, 1.4627724, 2.966959, 1.4427758, 10.807192, 1.6831336, 1.3198928, 1.45537, 1.4872006, 1.142099, 3.6676638, 1.1807343, 5.6553454, 1.6607974, 4.0567274, 1.1375662, 1.0521147, 1.4037845, 12.176447, 1.4537678, 1.4940908, 4.3760405, 5.5579233, 1.1506271, 5.841711, 4.965481, 2.474183, 1.1934807, 2.8881488, 1.1685785, 1.2649201, 10.911527, 1.1217492, 3.2542913, 4.4006963, 1.1572269, 2.0762298, 2.8892512, 1.1731733, 1.7160778], "tree_param": {"num_deleted": "0", "num_feature": "28", "num_nodes": "79", "size_leaf_vector": "1"}}, {"base_weights": [0.040165216, 0.28276676, -1.0985191, 0.37881917, -0.8179129, 0.008025491, -1.2429024, -0.15269673, 0.7273626, 0.28919291, -0.05002446, -0.0068261004, -1.360395, -0.4273218, 0.59294164, -0.036684573, 0.88692755, -0.013921825, 0.02908996, -0.05009497, -0.63195163, -1.316182, -0.076415665, 0.9220944, -0.012358458, -0.5411531, 0.027916588, 0.32796225, 1.0589124, 0.008435286, -0.03754743, 0.004498553, -0.056881104, 0.64814806, -0.5269477, 0.040508173, 0.006897331, 0.01965727, -1.0123689, 0.6763633, -0.021372983, 1.1410737, -0.0062631364, -0.013835317, 1.012366, -0.9370897, 0.4972863, -0.04660795, 0.0023991154, -0.017193697, 0.9502965, 1.2480927, 0.3302794, 0.0022836388, 0.042033333, -0.04725432, -0.0032391134, 0.03493127, -0.013542258, 0.03933077, 0.007637113, 0.0015364086, 0.044056278, -0.01508714, 0.032276947], "categories": [], "categories_nodes": [], "categories_segments": [], "categories_sizes": [], "default_left": [0, 0, 0, 0, 0, 0, 0, 0, 0, 0, 0, 0, 0, 0, 0, 0, 0, 0, 0, 0, 0, 0, 0, 0, 0, 0, 0, 0, 0, 0, 0, 0, 0, 0, 0, 0, 0, 0, 0, 0, 0, 0, 0, 0, 0, 0, 0, 0, 0, 0, 0, 0, 0, 0, 0, 0, 0, 0, 0, 0, 0, 0, 0, 0, 0], "id": 17, "left_children": [1, 3, 5, 7, 9, -1, 11, 13, 15, 17, -1, -1, 19, 21, 23, 25, 27, -1, -1, -1, 29, 31, 33, 35, -1, 37, -1, 39, 41, -1, -1, -1, -1, 43, 45, -1, -1, -1, 47, 49, -1, 51, -1, -1, 53, 55, 57, -1, -1, -1, 59, 61, 63, -1, -1, -1, -1, -1, -1, -1, -1, -1, -1, -1, -1], "loss_changes": [26.062931, 8.518636, 3.5048904, 13.467304, 5.3843436, 0.0, 1.5664444, 6.269501, 5.3622036, 1.7406411, 0.0, 0.0, 0.44198608, 6.7778206, 2.9832215, 4.2073255, 3.1330814, 0.0, 0.0, 0.0, 2.0002217, 3.7302074, 5.8493967, 1.1099854, 0.0, 3.7971423, 0.0, 3.799057, 3.0044823, 0.0, 0.0, 0.0, 0.0, 3.0988674, 5.068065, 0.0, 0.0, 0.0, 2.0283055, 3.04336, 0.0, 1.8172607, 0.0, 0.0, 1.1909742, 3.1595087, 2.3093457, 0.0, 0.0, 0.0, 0.84071255, 1.9151573, 2.614044, 0.0, 0.0, 0.0, 0.0, 0.0, 0.0, 0.0, 0.0, 0.0, 0.0, 0.0, 0.0], "parents": [2147483647, 0, 0, 1, 1, 2, 2, 3, 3, 4, 4, 6, 6, 7, 7, 8, 8, 9, 9, 12, 12, 13, 13, 14, 14, 15, 15, 16, 16, 20, 20, 21, 21, 22, 22, 23, 23, 25, 25, 27, 27, 28, 28, 33, 33, 34, 34, 38, 38, 39, 39, 41, 41, 44, 44, 45, 45, 46, 46, 50, 50, 51, 51, 52, 52], "right_children": [2, 4, 6, 8, 10, -1, 12, 14, 16, 18, -1, -1, 20, 22, 24, 26, 28, -1, -1, -1, 30, 32, 34, 36, -1, 38, -1, 40, 42, -1, -1, -1, -1, 44, 46, -1, -1, -1, 48, 50, -1, 52, -1, -1, 54, 56, 58, -1, -1, -1, 60, 62, 64, -1, -1, -1, -1, -1, -1, -1, -1, -1, -1, -1, -1], "split_conditions": [0.84341973, 1.5944006, -1.5180967, -0.49968445, -0.05859349, 0.008025491, -0.94608366, -0.1841245, -0.7444332, 0.049616806, -0.05002446, -0.0068261004, 0.7966594, -0.7957014, 0.7340226, 0.5929437, -0.6016692, -0.013921825, 0.02908996, -0.05009497, -0.3893569, -0.7757823, -0.24619548, 0.61462885, -0.012358458, -0.637793, 0.027916588, -0.045695484, 0.936149, 0.008435286, -0.03754743, 0.004498553, -0.056881104, -0.38318723, 0.44076943, 0.040508173, 0.006897331, 0.01965727, 0.30923256, -0.50529426, -0.021372983, 0.4933673, -0.0062631364, -0.013835317, -0.87531054, 0.50263965, -0.36410883, -0.04660795, 0.0023991154, -0.017193697, 0.45738545, -0.43379903, 0.6717381, 0.0022836388, 0.042033333, -0.04725432, -0.0032391134, 0.03493127, -0.013542258, 0.03933077, 0.007637113, 0.0015364086, 0.044056278, -0.01508714, 0.032276947], "split_indices": [25, 0, 15, 5, 27, 0, 17, 9, 25, 11, 0, 0, 4, 19, 15, 4, 13, 0, 0, 0, 23, 17, 14, 11, 0, 1, 0, 27, 23, 0, 0, 0, 0, 19, 20, 0, 0, 0, 5, 25, 0, 0, 0, 0, 13, 14, 0, 0, 0, 0, 2, 23, 0, 0, 0, 0, 0, 0, 0, 0, 0, 0, 0, 0, 0], "split_type": [0, 0, 0, 0, 0, 0, 0, 0, 0, 0, 0, 0, 0, 0, 0, 0, 0, 0, 0, 0, 0, 0, 0, 0, 0, 0, 0, 0, 0, 0, 0, 0, 0, 0, 0, 0, 0, 0, 0, 0, 0, 0, 0, 0, 0, 0, 0, 0, 0, 0, 0, 0, 0, 0, 0, 0, 0, 0, 0, 0, 0, 0, 0, 0, 0], "sum_hessian": [92.222176, 76.644424, 15.57775, 71.09597, 5.548461, 1.4509901, 14.12676, 28.379768, 42.716198, 2.3365386, 3.2119222, 1.715165, 12.411594, 21.05276, 7.3270087, 7.512773, 35.203426, 1.1851287, 1.15141, 9.492208, 2.9193876, 5.1802235, 15.872537, 5.4937663, 1.8332425, 5.0053005, 2.5074723, 8.966964, 26.236462, 1.2214484, 1.6979392, 1.236502, 3.9437213, 5.9173646, 9.955172, 3.4006193, 2.0931468, 1.3982227, 3.607078, 6.818047, 2.148917, 24.693995, 1.5424677, 1.4742408, 4.443124, 7.1693683, 2.7858038, 2.4468658, 1.1602123, 1.1089308, 5.709116, 21.338167, 3.3558269, 1.1923397, 3.250784, 4.1227846, 3.0465834, 1.6316401, 1.1541637, 3.8478558, 1.8612604, 1.3249369, 20.013231, 1.6373373, 1.7184894], "tree_param": {"num_deleted": "0", "num_feature": "28", "num_nodes": "65", "size_leaf_vector": "1"}}, {"base_weights": [-0.3365048, -0.01779894, -0.78788227, -0.8540049, 0.41158736, -1.2399207, -0.38664544, 0.012043321, -0.98905873, -0.22759849, 0.68216777, -0.42355657, -1.3808132, 0.4872793, -0.72904474, -0.122682, -1.2764037, 0.51191914, -0.79567575, 1.0557517, -0.03646343, 0.014285451, -0.030358711, -0.012706057, -1.5024426, -0.018375276, 0.8527416, -0.9537698, 0.26906326, 0.025397731, -0.79143167, -0.6149735, -1.5871145, 0.034031555, -0.016835343, 0.034135185, -1.3288641, -0.009112309, 1.1805124, -0.03476696, 0.40795305, -1.6047397, -0.009196876, 0.041125104, -0.009534416, -1.1291206, 0.005762005, 0.028082559, -0.012625939, -0.03889023, 0.00045617262, -1.1861441, 0.029644568, -0.05788981, -0.020462846, 0.027365813, -0.023432212, -0.01298075, -0.051770385, 0.2726858, 1.3085228, -0.023893679, 0.7320294, -0.017116776, -0.05598751, -0.053683612, -0.3834687, -0.046309378, -0.010794378, -0.01499056, 0.028603949, 0.010001186, 0.045593865, 0.039321292, -0.008715471, 0.026129527, -0.81122345, -0.044480212, 0.0036553298], "categories": [], "categories_nodes": [], "categories_segments": [], "categories_sizes": [], "default_left": [0, 0, 0, 0, 0, 0, 0, 0, 0, 0, 0, 0, 0, 0, 0, 0, 0, 0, 0, 0, 0, 0, 0, 0, 0, 0, 0, 0, 0, 0, 0, 0, 0, 0, 0, 0, 0, 0, 0, 0, 0, 0, 0, 0, 0, 0, 0, 0, 0, 0, 0, 0, 0, 0, 0, 0, 0, 0, 0, 0, 0, 0, 0, 0, 0, 0, 0, 0, 0, 0, 0, 0, 0, 0, 0, 0, 0, 0, 0], "id": 18, "left_children": [1, 3, 5, 7, 9, 11, 13, -1, 15, 17, 19, 21, 23, 25, 27, 29, 31, 33, 35, 37, 39, -1, -1, -1, 41, -1, 43, 45, 47, -1, 49, 51, 53, -1, -1, 55, 57, -1, 59, -1, 61, 63, -1, -1, -1, 65, -1, -1, -1, -1, -1, 67, -1, -1, -1, -1, -1, -1, -1, 69, 71, -1, 73, -1, -1, -1, 75, -1, -1, -1, -1, -1, -1, -1, -1, -1, 77, -1, -1], "loss_changes": [13.466189, 20.43992, 6.5502815, 3.5262423, 6.6652985, 1.4592819, 6.934101, 0.0, 4.2357826, 5.4254084, 7.20555, 2.075119, 1.2162704, 3.0466213, 3.8896942, 3.8571215, 1.7250328, 3.517038, 3.2075167, 3.2408886, 4.942494, 0.0, 0.0, 0.0, 1.1604862, 0.0, 2.7019806, 2.8504734, 1.7146266, 0.0, 1.1106312, 6.0669584, 0.14356041, 0.0, 0.0, 2.7640908, 0.31711102, 0.0, 1.5346546, 0.0, 3.3401093, 0.084329605, 0.0, 0.0, 0.0, 3.6048365, 0.0, 0.0, 0.0, 0.0, 0.0, 0.36577225, 0.0, 0.0, 0.0, 0.0, 0.0, 0.0, 0.0, 1.7708317, 0.42683983, 0.0, 3.1948993, 0.0, 0.0, 0.0, 3.595731, 0.0, 0.0, 0.0, 0.0, 0.0, 0.0, 0.0, 0.0, 0.0, 2.473061, 0.0, 0.0], "parents": [2147483647, 0, 0, 1, 1, 2, 2, 3, 3, 4, 4, 5, 5, 6, 6, 8, 8, 9, 9, 10, 10, 11, 11, 12, 12, 13, 13, 14, 14, 15, 15, 16, 16, 17, 17, 18, 18, 19, 19, 20, 20, 24, 24, 26, 26, 27, 27, 28, 28, 30, 30, 31, 31, 32, 32, 35, 35, 36, 36, 38, 38, 40, 40, 41, 41, 45, 45, 51, 51, 59, 59, 60, 60, 62, 62, 66, 66, 76, 76], "right_children": [2, 4, 6, 8, 10, 12, 14, -1, 16, 18, 20, 22, 24, 26, 28, 30, 32, 34, 36, 38, 40, -1, -1, -1, 42, -1, 44, 46, 48, -1, 50, 52, 54, -1, -1, 56, 58, -1, 60, -1, 62, 64, -1, -1, -1, 66, -1, -1, -1, -1, -1, 68, -1, -1, -1, -1, -1, -1, -1, 70, 72, -1, 74, -1, -1, -1, 76, -1, -1, -1, -1, -1, -1, -1, -1, -1, 78, -1, -1], "split_conditions": [-0.08386718, -0.6700366, 0.086225376, -1.0596371, -0.6877853, -0.39923337, -0.7987876, 0.012043321, -0.7868063, -0.27149418, -0.14983608, 0.28973547, -0.62154233, -0.85279226, 0.79435533, 0.008400013, -0.042285405, 0.25750712, -0.22688077, -1.4241718, -1.0288898, 0.014285451, -0.030358711, -0.012706057, 1.6532992, -0.018375276, 0.53648585, 2.0725915, 0.07617035, 0.025397731, -0.025883375, 0.013888615, 1.3484621, 0.034031555, -0.016835343, 0.25034088, -0.5208551, -0.009112309, -0.3924629, -0.03476696, -0.7331773, -1.1142385, -0.009196876, 0.041125104, -0.009534416, 0.072939225, 0.005762005, 0.028082559, -0.012625939, -0.03889023, 0.00045617262, -0.3300152, 0.029644568, -0.05788981, -0.020462846, 0.027365813, -0.023432212, -0.01298075, -0.051770385, -0.23659952, -1.0156435, -0.023893679, -0.3260954, -0.017116776, -0.05598751, -0.053683612, -0.7644844, -0.046309378, -0.010794378, -0.01499056, 0.028603949, 0.010001186, 0.045593865, 0.039321292, -0.008715471, 0.026129527, 0.023431718, -0.044480212, 0.0036553298], "split_indices": [27, 26, 24, 18, 3, 23, 11, 0, 14, 0, 25, 27, 9, 18, 4, 2, 10, 4, 10, 4, 11, 0, 0, 0, 5, 0, 6, 23, 0, 0, 19, 3, 10, 0, 0, 15, 17, 0, 23, 0, 5, 1, 0, 0, 0, 9, 0, 0, 0, 0, 0, 23, 0, 0, 0, 0, 0, 0, 0, 13, 22, 0, 22, 0, 0, 0, 5, 0, 0, 0, 0, 0, 0, 0, 0, 0, 22, 0, 0], "split_type": [0, 0, 0, 0, 0, 0, 0, 0, 0, 0, 0, 0, 0, 0, 0, 0, 0, 0, 0, 0, 0, 0, 0, 0, 0, 0, 0, 0, 0, 0, 0, 0, 0, 0, 0, 0, 0, 0, 0, 0, 0, 0, 0, 0, 0, 0, 0, 0, 0, 0, 0, 0, 0, 0, 0, 0, 0, 0, 0, 0, 0, 0, 0, 0, 0, 0, 0, 0, 0, 0, 0, 0, 0, 0, 0, 0, 0, 0, 0], "sum_hessian": [92.70588, 54.947975, 37.7579, 18.307072, 36.640903, 16.77205, 20.98585, 1.6634058, 16.643667, 10.944891, 25.696012, 3.0582247, 13.713826, 5.788474, 15.197374, 4.5006523, 12.143014, 4.797894, 6.146997, 16.598228, 9.097784, 1.1562712, 1.9019535, 1.9360474, 11.777779, 1.3744111, 4.414063, 12.440749, 2.7566254, 1.8776206, 2.6230316, 4.833301, 7.3097134, 3.194869, 1.603025, 2.770772, 3.376225, 1.3221147, 15.2761135, 2.3740203, 6.723764, 10.58648, 1.1912978, 3.2449586, 1.1691045, 10.763316, 1.6774336, 1.3029392, 1.4536862, 1.4827758, 1.1402558, 3.6564784, 1.1768227, 5.655959, 1.6537544, 1.2851336, 1.4856384, 1.17796, 2.1982648, 2.2746806, 13.001433, 1.2329029, 5.4908614, 1.1844077, 9.402073, 5.83586, 4.9274564, 2.4647422, 1.1917362, 1.1219977, 1.152683, 1.0584792, 11.942954, 3.6562204, 1.8346409, 1.098114, 3.8293421, 2.1556177, 1.6737245], "tree_param": {"num_deleted": "0", "num_feature": "28", "num_nodes": "79", "size_leaf_vector": "1"}}, {"base_weights": [0.045014217, 0.28166357, -1.0644659, -0.034029797, 0.61752576, 0.008205361, -1.2072378, -0.8957619, 0.1990468, 0.9241687, 0.07516197, -1.393138, -0.44359335, 0.0126318475, -1.2001858, -0.33292973, 0.57632196, -0.013797952, 1.0108665, 0.3661347, -0.043930057, -0.050613966, -0.016841374, -0.036479983, 0.008315463, -0.049699545, -0.00082814926, -1.0703073, 0.3998623, 0.8295149, -0.20999065, 0.41208655, 1.1707586, -0.37015364, 1.1280295, 0.0059054946, -0.051890094, 1.0151274, -0.028323555, 0.9455521, -0.009628964, -0.60219353, 0.025318133, 0.036553882, -0.0206025, 1.3298712, 0.20222265, 0.021179825, -0.81653666, 0.041786112, 0.0072749914, 0.0069210986, 0.038132593, 1.1010284, -0.0031683336, 0.0055925874, -0.041743748, 0.016688602, 0.047120936, 0.03162491, -0.023206417, -1.1887302, 0.011354349, 0.042174973, 0.010863547, -0.0249397, 0.026802845, -0.013854445, -0.04725733], "categories": [], "categories_nodes": [], "categories_segments": [], "categories_sizes": [], "default_left": [0, 0, 0, 0, 0, 0, 0, 0, 0, 0, 0, 0, 0, 0, 0, 0, 0, 0, 0, 0, 0, 0, 0, 0, 0, 0, 0, 0, 0, 0, 0, 0, 0, 0, 0, 0, 0, 0, 0, 0, 0, 0, 0, 0, 0, 0, 0, 0, 0, 0, 0, 0, 0, 0, 0, 0, 0, 0, 0, 0, 0, 0, 0, 0, 0, 0, 0, 0, 0], "id": 19, "left_children": [1, 3, 5, 7, 9, -1, 11, 13, 15, 17, 19, 21, 23, -1, 25, 27, 29, -1, 31, 33, -1, -1, -1, -1, -1, -1, -1, 35, 37, 39, 41, 43, 45, 47, 49, -1, -1, 51, -1, 53, -1, 55, -1, -1, -1, 57, 59, -1, 61, -1, -1, -1, -1, 63, -1, 65, -1, -1, -1, -1, -1, 67, -1, -1, -1, -1, -1, -1, -1], "loss_changes": [24.563622, 8.1808, 3.3763351, 8.336357, 6.140628, 0.0, 1.5126266, 3.8809586, 6.772621, 3.1754417, 6.3903832, 0.5234947, 2.2600846, 0.0, 2.4809074, 8.121855, 4.0663533, 0.0, 1.682188, 7.620013, 0.0, 0.0, 0.0, 0.0, 0.0, 0.0, 0.0, 4.747163, 6.9128704, 2.2184696, 2.5715168, 5.12617, 2.3973103, 3.7875361, 0.4753828, 0.0, 0.0, 0.35853624, 0.0, 2.339775, 0.0, 1.7915188, 0.0, 0.0,